[n]
3

[smoother]
kylm.model.ngram.smoother.MKNSmoother

[closed]
true

[max_length]
133

[vocab_cutoff]
0

[start_symbol]
<s>

[terminal_symbol]
</s>

[unknown_symbol]
<unk>

\data\
ngram 1=880
ngram 2=2554
ngram 3=3625
\1-grams: 
-99.0000	<s>	-0.5277
-3.4072	</s>
-1.5207	(	-0.4718
-1.8274	)	-0.5447
-3.1062	*	-0.1195
-1.3658	,	-0.3754
-1.8632	-	-0.1573
-1.3428	.	-1.0245
-2.2031	/	-0.4211
-2.2933	0	-0.2588
-1.9922	1	-0.3691
-3.1062	18F-FDG	-0.1456
-2.0648	2	-0.2503
-2.2311	3	-0.1724
-2.3280	4	-0.2059
-3.1062	4R	-0.1195
-2.3280	5	-0.1942
-2.2933	6	-0.1640
-2.2933	7	-0.1582
-2.3658	8	-0.1768
-2.3280	9	-0.2137
-2.0093	:	-0.2372
-3.4072	C3	-0.1195
-3.4072	C5	-0.1195
-3.1062	C6	-0.1195
-3.4072	C7	-0.1195
-3.4072	CIE	-0.1195
-3.4072	D10	-0.1195
-3.4072	D11	-0.1195
-3.4072	FE	-0.1195
-3.4072	I	-0.1195
-3.4072	III	-0.1195
-3.4072	IV	-0.1195
-3.1062	L3	-0.1195
-3.1062	L4	-0.1195
-3.1062	L5	-0.1195
-3.4072	LID	-0.1195
-3.4072	LSD	-0.1195
-3.4072	LSI	-0.1195
-3.4072	MSI	-0.1195
-2.9301	PET	-0.1195
-2.9301	PET-CT	-0.1195
-3.4072	PSA	-0.1195
-2.8052	RM	-0.2355
-3.4072	S1	-0.1195
-2.9301	SUL	-0.1195
-2.4072	SULmax	-0.3541
-3.4072	SUV	-0.1195
-2.4530	TC	-0.2614
-3.4072	VI	-0.1195
-2.0850	a	-0.2034
-2.9301	abdomen	-0.1638
-2.9301	abdominal	-0.1523
-3.4072	abdominales	-0.1195
-3.4072	abdomino	-0.1195
-3.4072	accesibles	-0.1195
-3.4072	acromion	-0.1195
-3.4072	activación	-0.1195
-2.3658	actividad	-0.2924
-3.4072	actividades	-0.1195
-3.4072	actual	-0.1195
-3.4072	actualidad	-0.1195
-3.4072	actualmente	-0.1195
-3.4072	actínica	-0.1195
-3.4072	actínicos	-0.1195
-3.4072	acá	-0.1195
-3.1062	además	-0.1195
-3.4072	adenocarcinoma	-0.1195
-3.4072	adenoma	-0.1195
-2.4072	adenopatía	-0.1497
-2.2933	adenopatías	-0.2021
-3.4072	adenopático	-0.1195
-3.4072	administra	-0.1195
-3.4072	administración	-0.1195
-3.4072	adquisición	-0.1195
-2.9301	adyacente	-0.1195
-3.1062	adyuvante	-0.1195
-3.4072	aerostática	-0.1195
-3.4072	afecta	-0.1195
-2.6291	afectación	-0.1523
-3.4072	afectas	-0.1195
-3.4072	afinidad	-0.1195
-2.5621	al	-0.1195
-3.4072	algunas	-0.1195
-3.4072	algunos	-0.1195
-3.4072	alrededor	-0.1195
-3.4072	alteraciones	-0.1195
-3.1062	alteración	-0.1878
-2.8052	ambas	-0.1356
-2.9301	ambos	-0.1195
-3.4072	amplificado	-0.1195
-3.4072	anexectomía	-0.1195
-3.4072	ano	-0.1195
-3.4072	ante	-0.1195
-3.4072	antecedente	-0.1195
-3.4072	antecedentes	-0.1195
-3.1062	anterior	-0.1195
-3.4072	anteriormente	-0.1195
-3.4072	antro	-0.1195
-3.4072	anómalo	-0.1195
-2.9301	aorta	-0.1195
-3.4072	ap	-0.1195
-3.4072	aparente	-0.1195
-3.1062	aparición	-0.1195
-3.4072	aporta	-0.1195
-3.4072	aprox	-0.1195
-3.1062	arco	-0.1878
-3.4072	areola	-0.1195
-3.4072	arteria	-0.1195
-3.4072	articulaciones	-0.1195
-3.4072	articulación	-0.1195
-3.4072	articulares	-0.1195
-3.4072	asas	-0.1195
-3.4072	ascendente	-0.1195
-3.4072	asimetría	-0.1195
-3.4072	asimismo	-0.1195
-2.7083	asocia	-0.1523
-3.1062	asociado	-0.1638
-3.4072	asocian	-0.1195
-3.1062	así	-0.1878
-3.4072	atelectasia	-0.1195
-3.4072	aumenta	-0.1195
-3.4072	aumentadas	-0.1195
-3.4072	aumentado	-0.1195
-2.3280	aumento	-0.6556
-3.4072	aunque	-0.1195
-2.9301	ausencia	-0.1638
-3.4072	avanzada	-0.1195
-3.4072	avidez	-0.1195
-3.4072	axila	-0.1195
-3.1062	axilar	-0.1195
-3.1062	axilares	-0.1638
-2.6291	años	-0.2072
-3.4072	aórtico	-0.1195
-3.1062	b	-0.1195
-3.4072	baja	-0.1195
-3.4072	bajas	-0.1195
-2.9301	basal	-0.1195
-3.4072	base	-0.1195
-2.9301	bazo	-0.1456
-2.9301	bilateral	-0.1195
-2.7083	bilaterales	-0.1456
-3.4072	bilobulado	-0.1195
-3.1062	biopsia	-0.1195
-3.4072	blandas	-0.1195
-3.4072	body	-0.1195
-3.4072	braquiterápia	-0.1195
-3.4072	brazos	-0.1195
-3.4072	brote	-0.1195
-3.1062	bursitis	-0.1195
-3.4072	c	-0.1195
-3.4072	calcificación	-0.1195
-3.4072	calcificada	-0.1195
-3.4072	calcificadas	-0.1195
-3.1062	calcificados	-0.1195
-2.9301	calcinosis	-0.1195
-2.8052	cambios	-0.1991
-2.9301	captación	-0.1456
-3.4072	captante	-0.1195
-3.4072	caracterizable	-0.1195
-3.4072	caracterizables	-0.1195
-3.4072	características	-0.1195
-3.4072	carcinoma	-0.1195
-3.1062	carillas	-0.1878
-3.4072	cava	-0.1195
-3.4072	cayado	-0.1195
-3.4072	cea	-0.1195
-3.4072	celular	-0.1195
-3.4072	centinelas	-0.1195
-3.4072	central	-0.1195
-3.4072	centro	-0.1195
-3.1062	centrolobulillar	-0.1195
-3.4072	cerclajes	-0.1195
-3.1062	cerebral	-0.1195
-3.4072	cerebrales	-0.1195
-3.1062	cervical	-0.1195
-3.1062	cervicales	-0.1195
-3.4072	cintura	-0.1195
-3.4072	circunferencial	-0.1195
-3.1062	cirugía	-0.1195
-3.4072	clara	-0.1195
-3.4072	clavicular	-0.1195
-3.4072	claviculares	-0.1195
-3.4072	clínicamente	-0.1195
-2.4530	cm	-0.4424
-3.4072	colecistectomizado	-0.1195
-3.4072	colon	-0.1195
-3.4072	colonoscopia	-0.1195
-3.4072	colostomía	-0.1195
-3.1062	como	-0.1195
-3.4072	compara	-0.1195
-3.4072	comparar	-0.1195
-3.1062	compatible	-0.1878
-3.1062	compatibles	-0.1878
-3.4072	complejo	-0.1195
-3.4072	completo	-0.1195
-3.4072	componente	-0.1195
-3.4072	comportamiento	-0.1195
-3.4072	comprime	-0.1195
-3.4072	común	-0.1195
-1.9448	con	-0.1854
-3.4072	conclusión	-0.1195
-3.4072	condicionada	-0.1195
-3.4072	confirma	-0.1195
-3.4072	confirmar	-0.1195
-2.9301	conglomerado	-0.1195
-2.5041	conocida	-0.2594
-3.4072	conocidas	-0.1195
-3.4072	consideración	-0.1195
-3.4072	considerar	-0.1195
-3.4072	consulta	-0.1195
-3.4072	contra	-0.1195
-3.1062	contraste	-0.1638
-3.4072	control	-0.1195
-3.4072	controles	-0.1195
-3.4072	correlacionamos	-0.1195
-3.4072	corresponder	-0.1195
-3.4072	cortical	-0.1195
-3.4072	cortico	-0.1195
-3.4072	costal	-0.1195
-3.4072	costo	-0.1195
-3.4072	craneal	-0.1195
-3.4072	craneoencefálicas	-0.1195
-3.4072	cresta	-0.1195
-3.4072	cricoaritenoidea	-0.1195
-2.7083	cráneo	-0.3670
-3.4072	crónica	-0.1195
-3.4072	cuadrado	-0.1195
-3.4072	cuadrante	-0.1195
-3.4072	cuadrantes	-0.1195
-3.4072	cual	-0.1195
-3.4072	cuello	-0.1195
-3.4072	cuenta	-0.1195
-3.4072	cuerdas	-0.1195
-2.9301	cuerpo	-0.1638
-3.4072	cutáneo	-0.1195
-3.4072	cálcico	-0.1195
-2.9301	cúpula	-0.1638
-3.4072	dada	-0.1195
-3.4072	dado	-0.1195
-1.3209	de	-0.2430
-3.4072	dedos	-0.1195
-3.1062	degenerativa	-0.1878
-2.2311	del	-0.1526
-3.1062	densidad	-0.1195
-3.4072	dentro	-0.1195
-3.1062	depósito	-0.1195
-2.9301	depósitos	-0.3346
-2.2611	derecha	-0.2944
-2.4530	derecho	-0.1881
-3.1062	dermatomiositis	-0.1195
-2.8052	derrame	-0.2698
-2.9301	descartar	-0.3346
-3.4072	descendente	-0.1195
-3.1062	descrita	-0.1878
-3.1062	descritas	-0.1878
-2.8052	desde	-0.1195
-3.4072	desplaza	-0.1195
-3.4072	desplazado	-0.1195
-2.8052	destaca	-0.1732
-3.4072	destacamos	-0.1195
-3.4072	destacan	-0.1195
-3.4072	detectar	-0.1195
-3.1062	diagnosticada	-0.1195
-3.4072	diagnosticado	-0.1195
-3.4072	diagnóstico	-0.1195
-3.4072	dicha	-0.1195
-3.4072	diciembre	-0.1195
-3.4072	diferencial	-0.1195
-3.4072	diferenciar	-0.1195
-3.4072	difusa	-0.1195
-3.4072	difuso	-0.1195
-3.1062	dilatación	-0.1878
-3.4072	discretamente	-0.1195
-3.4072	discreto	-0.1195
-3.4072	disestesias	-0.1195
-3.4072	disminución	-0.1195
-3.4072	disminuida	-0.1195
-3.4072	dispositivo	-0.1195
-3.4072	dispuestas	-0.1195
-2.8052	distribución	-0.4596
-3.4072	distribuyen	-0.1195
-3.1062	diáfisis	-0.1195
-3.4072	diámetro	-0.1195
-3.4072	dl	-0.1195
-3.4072	doble	-0.1195
-3.4072	dolor	-0.1195
-2.7083	dos	-0.2355
-3.1062	dosis	-0.1195
-3.4072	ductal	-0.1195
-2.8052	e	-0.1523
-3.4072	ecografía	-0.1195
-3.4072	ecográficamente	-0.1195
-3.4072	edema	-0.1195
-3.4072	eje	-0.1195
-2.2933	el	-0.1641
-3.4072	elevación	-0.1195
-3.4072	elevador	-0.1195
-3.1062	ellas	-0.1195
-3.4072	ello	-0.1195
-3.4072	ellos	-0.1195
-1.4387	en	-0.2717
-3.4072	encefálicos	-0.1195
-3.4072	endometrio	-0.1195
-3.4072	endometrioide	-0.1195
-3.4072	endonasal	-0.1195
-3.4072	endoscópica	-0.1195
-2.9301	enfermedad	-0.1195
-3.4072	enfisema	-0.1195
-3.1062	engrosamiento	-0.1732
-3.1062	entre	-0.1195
-3.4072	epidural	-0.1195
-3.1062	es	-0.1195
-3.4072	escalénica	-0.1195
-3.4072	escapular	-0.1195
-3.4072	esclerosis	-0.1195
-3.4072	esfenoidal	-0.1195
-3.4072	espacio	-0.1195
-3.4072	espinosamente	-0.1195
-3.4072	esplenosis	-0.1195
-3.4072	esplénica	-0.1195
-3.4072	esplénicas	-0.1195
-3.4072	esplénico	-0.1195
-3.4072	esquelético	-0.1195
-3.1062	esta	-0.1195
-3.4072	estaba	-0.1195
-3.4072	establecer	-0.1195
-3.4072	estaciones	-0.1195
-3.4072	estadificación	-0.1195
-3.4072	estar	-0.1195
-3.4072	esterno	-0.1195
-3.4072	esternotomía	-0.1195
-3.4072	estimulación	-0.1195
-3.1062	estos	-0.1878
-3.1062	estructura	-0.1878
-2.9301	estructuras	-0.1638
-2.3280	estudio	-0.2250
-3.1062	estudios	-0.1195
-2.9301	está	-0.1195
-2.8052	etiología	-0.2523
-3.4072	evidencia	-0.1195
-3.4072	evolución	-0.1195
-3.4072	expresan	-0.1195
-3.4072	extensión	-0.1195
-3.4072	extensos	-0.1195
-3.4072	externa	-0.1195
-3.4072	externas	-0.1195
-3.4072	extiende	-0.1195
-3.4072	extraconal	-0.1195
-3.4072	faringe	-0.1195
-3.1062	femoral	-0.1195
-3.4072	fin	-0.1195
-3.4072	finalizada	-0.1195
-3.4072	fisiológica	-0.1195
-3.4072	focal	-0.1195
-3.4072	focales	-0.1195
-2.9301	foco	-0.1456
-2.8052	focos	-0.4596
-3.4072	formando	-0.1195
-3.4072	fosa	-0.1195
-3.4072	fractura	-0.1195
-3.1062	frontal	-0.1195
-3.4072	fulguración	-0.1195
-3.4072	funcional	-0.1195
-3.4072	funcionales	-0.1195
-3.4072	fundus	-0.1195
-3.4072	fármaco	-0.1195
-3.4072	g	-0.1195
-3.4072	ganglio	-0.1195
-3.4072	ganglionar	-0.1195
-3.4072	ganglionares	-0.1195
-2.9301	ganglios	-0.1195
-3.4072	gastritis	-0.1195
-3.4072	ginecológica	-0.1195
-2.9301	glucemia	-0.1523
-3.4072	glucemia:	-0.1195
-2.8052	glándula	-0.2698
-3.1062	glándulas	-0.1878
-3.4072	glútea	-0.1195
-3.4072	glúteo	-0.1195
-3.4072	grado	-0.1195
-3.1062	grandes	-0.1878
-3.4072	granulomas	-0.1195
-3.4072	granulomatosa	-0.1195
-3.4072	grapas	-0.1195
-3.4072	grasa	-0.1195
-3.4072	graso	-0.1195
-3.4072	gástrica	-0.1195
-3.4072	gástrico	-0.1195
-3.4072	haber	-0.1195
-2.5621	hallazgos	-0.3078
-2.9301	hasta	-0.1195
-2.8052	hay	-0.2701
-3.4072	hemitórax	-0.1195
-2.6291	hepática	-0.1572
-2.9301	hepáticas	-0.1195
-3.1062	hepático	-0.1195
-3.4072	her	-0.1195
-3.4072	hernia	-0.1195
-3.4072	heterotópica	-0.1195
-3.4072	hiato	-0.1195
-3.4072	hidrostático	-0.1195
-2.8052	hiliares	-0.1523
-3.1062	hilo	-0.1195
-3.4072	hipercaptación	-0.1195
-3.4072	hiperdensa	-0.1195
-2.6291	hipermetabolismo	-0.2259
-2.7083	hipermetabólica	-0.3147
-2.5621	hipermetabólicas	-0.1801
-2.6291	hipermetabólico	-0.2793
-3.1062	hipermetabólicos	-0.1195
-3.4072	hipodensa	-0.1195
-3.4072	hipodensas	-0.1195
-3.4072	hipometabolismo	-0.1195
-2.9301	histerectomía	-0.1195
-3.4072	histología	-0.1195
-3.4072	honduras	-0.1195
-3.4072	horas	-0.1195
-3.4072	hueso	-0.1195
-3.4072	hígado	-0.1195
-2.8052	i.v.	-0.1456
-3.4072	ia	-0.1195
-3.4072	identifica	-0.1195
-3.1062	identifican	-0.1302
-3.4072	ig	-0.1195
-3.4072	igg	-0.1195
-3.1062	igualmente	-0.1195
-3.4072	iia	-0.1195
-2.7083	iliaca	-0.1380
-3.4072	iliacas	-0.1195
-3.4072	iliaco	-0.1195
-3.4072	imagen	-0.1195
-3.4072	implante	-0.1195
-2.9301	implantes	-0.1195
-3.1062	imágenes	-0.1195
-3.4072	incluyendo	-0.1195
-2.9301	incremento	-0.3346
-3.1062	inespecífica	-0.1195
-2.8052	inespecíficas	-0.1878
-3.4072	inespecífico	-0.1195
-3.4072	inespecíficos	-0.1195
-3.4072	infecciosa	-0.1195
-2.8052	inferior	-0.1195
-3.1062	inferiores	-0.1195
-3.4072	infiltra	-0.1195
-3.1062	infiltración	-0.1195
-3.4072	infiltrar	-0.1195
-3.4072	infiltrarte	-0.1195
-2.8052	inflamatoria	-0.1966
-3.4072	inflamatorio	-0.1195
-3.4072	inflamatorios	-0.1195
-3.4072	informes	-0.1195
-3.4072	infraclaviculares	-0.1195
-3.4072	infradiafragmática	-0.1195
-3.1062	inguinal	-0.1195
-3.4072	iniciado	-0.1195
-3.1062	inserción	-0.1195
-3.4072	intensa	-0.1195
-3.1062	interaorto	-0.1878
-3.4072	interaortocava	-0.1195
-3.4072	interasas	-0.1195
-2.9301	interna	-0.1523
-3.1062	interno	-0.1195
-3.1062	intersticial	-0.1195
-2.9301	intervenida	-0.1195
-3.4072	intraabdominal	-0.1195
-3.1062	ipsilateral	-0.1195
-3.4072	isquiotibiales	-0.1195
-3.4072	isquiática	-0.1195
-3.4072	istmo	-0.1195
-2.2031	izquierda	-0.3351
-3.1062	izquierdas	-0.1195
-2.2031	izquierdo	-0.3466
-3.4072	julio	-0.1195
-3.4072	junto	-0.1195
-2.1768	la	-0.1470
-3.4072	lado	-0.1195
-3.4072	laminar	-0.1195
-3.4072	laríngeas	-0.1195
-2.7083	las	-0.1380
-3.4072	laterales	-0.1195
-3.4072	lateralmente	-0.1195
-2.9301	laterocervicales	-0.1638
-3.1062	lean	-0.1878
-3.4072	lengua	-0.1195
-3.4072	lenta	-0.1195
-3.4072	lenticular	-0.1195
-2.7083	lesiones	-0.1380
-2.4072	lesión	-0.2033
-2.4530	leve	-0.3432
-2.5041	levemente	-0.3157
-3.1062	libre	-0.1195
-3.4072	limitación	-0.1195
-3.4072	linfadenectomía	-0.1195
-3.4072	liquido	-0.1195
-3.1062	lo	-0.1195
-3.4072	local	-0.1195
-3.4072	localización	-0.1195
-3.1062	localizado	-0.1878
-2.8052	los	-0.1195
-3.4072	lumbar	-0.1195
-3.1062	línea	-0.1195
-3.4072	língula	-0.1195
-2.9301	líquido	-0.1638
-3.4072	lóbulo	-0.1195
-3.1062	lóbulos	-0.1638
-3.4072	m	-0.1195
-2.5621	mCi	-0.7026
-2.9301	malignidad	-0.2139
-2.8052	mama	-0.2698
-2.9301	mamaria	-0.1638
-3.4072	mamario	-0.1195
-3.4072	manos	-0.1195
-3.1062	marzo	-0.1195
-3.4072	masa	-0.1195
-3.4072	masas	-0.1195
-3.4072	maxilar	-0.1195
-2.6291	mayor	-0.1411
-3.4072	mecánico	-0.1195
-3.1062	media	-0.1878
-2.9301	medial	-0.3346
-3.1062	mediante	-0.1195
-3.1062	mediastino	-0.1195
-2.9301	mediastínica	-0.1195
-2.9301	mediastínicas	-0.1195
-3.4072	mediastínico	-0.1195
-3.4072	mediastínicos	-0.1195
-3.4072	medio	-0.1195
-3.4072	mejoría	-0.1195
-2.7083	menor	-0.1411
-3.4072	menos	-0.1195
-3.4072	mesentéricos	-0.1195
-3.4072	mesorrecto	-0.1195
-2.1768	metabolismo	-0.2679
-2.6291	metabólica	-0.1356
-3.1062	metabólicamente	-0.1878
-3.4072	metabólicas	-0.1195
-2.8052	metabólico	-0.1456
-3.4072	metabólicos	-0.1195
-3.4072	metafísicos	-0.1195
-3.4072	metastásica	-0.1195
-2.7083	metástasis	-0.1572
-2.5621	mg	-0.5711
-3.4072	miembros	-0.1195
-3.4072	miles	-0.1195
-3.4072	milimétricos	-0.1195
-2.5621	minutos	-0.4396
-3.4072	miositis	-0.1195
-3.4072	mismas	-0.1195
-3.4072	ml	-0.1195
-2.4072	mm	-0.4348
-3.1062	moderado	-0.1195
-3.4072	monitorizar	-0.1195
-3.4072	morfología	-0.1195
-3.4072	morfometabólica	-0.1195
-3.4072	morfometabólicas	-0.1195
-3.4072	mucinosa	-0.1195
-3.4072	mucinoso	-0.1195
-3.1062	muestra	-0.1195
-3.4072	muestran	-0.1195
-3.1062	mujer	-0.1878
-3.4072	muscular	-0.1195
-3.4072	musculares	-0.1195
-3.1062	musculatura	-0.1523
-3.4072	musculo	-0.1195
-3.1062	muslo	-0.1195
-3.1062	muslos	-0.1195
-3.4072	más	-0.1195
-3.4072	máximo	-0.1195
-3.4072	mínimo	-0.1195
-3.4072	múltiple	-0.1195
-2.5621	múltiples	-0.1523
-2.9301	músculo	-0.1195
-3.4072	n	-0.1195
-3.4072	nasal	-0.1195
-2.9301	neoplasia	-0.1638
-3.4072	neuropático	-0.1195
-3.4072	ng	-0.1195
-2.5041	ni	-0.1195
-2.8052	nivel	-0.1883
-2.1519	no	-0.1939
-3.1062	nodular	-0.1195
-3.4072	normal	-0.1195
-3.4072	normalidad	-0.1195
-3.1062	normometabólica	-0.1878
-3.4072	nueva	-0.1195
-2.6291	nódulo	-0.2270
-2.6291	nódulos	-0.1572
-3.4072	o	-0.1195
-3.4072	objetivan	-0.1195
-3.4072	observa	-0.1195
-3.4072	observan	-0.1195
-3.4072	obtiene	-0.1195
-3.4072	obtienen	-0.1195
-3.4072	ocasional	-0.1195
-3.4072	occipital	-0.1195
-3.4072	octubre	-0.1195
-3.4072	ocular	-0.1195
-3.4072	ocupación	-0.1195
-3.4072	ojo	-0.1195
-3.4072	omentectomía	-0.1195
-3.4072	opacidad	-0.1195
-3.4072	opresión	-0.1195
-2.9301	otra	-0.1523
-3.1062	otras	-0.1195
-3.1062	otro	-0.1195
-2.9301	otros	-0.1195
-3.4072	paciente	-0.1195
-3.4072	palpitaciones	-0.1195
-2.9301	para	-0.1195
-3.4072	paraaórtica	-0.1195
-3.4072	paraaórtico	-0.1195
-3.4072	paracólico	-0.1195
-3.4072	paraseptal	-0.1195
-3.4072	paravertebral	-0.1195
-3.4072	paravertebrales	-0.1195
-3.1062	parcial	-0.1195
-3.4072	parcialmente	-0.1195
-3.4072	parda	-0.1195
-3.4072	parece	-0.1195
-2.8052	pared	-0.1572
-3.1062	partes	-0.1878
-3.4072	parámetros	-0.1195
-3.1062	parénquima	-0.1638
-3.4072	parótidas	-0.1195
-3.4072	patología	-0.1195
-3.1062	patológica	-0.1195
-3.4072	patológicas	-0.1195
-2.9301	patológicos	-0.1195
-3.4072	pectoral	-0.1195
-3.4072	pelviana	-0.1195
-2.9301	pelvis	-0.1195
-3.1062	pendiente	-0.1878
-3.4072	pequeñas	-0.1195
-2.9301	pequeño	-0.1638
-3.1062	pericárdico	-0.1878
-3.4072	perineal	-0.1195
-3.4072	peritoneal	-0.1195
-3.4072	permite	-0.1195
-3.4072	permiten	-0.1195
-3.4072	pero	-0.1195
-3.1062	persisten	-0.1878
-3.4072	pertrocantéreas	-0.1195
-3.4072	pesar	-0.1195
-3.4072	pezón	-0.1195
-3.1062	piel	-0.1195
-3.4072	placas	-0.1195
-3.4072	plano	-0.1195
-2.9301	plantea	-0.3346
-3.4072	plantean	-0.1195
-3.4072	pleura	-0.1195
-2.9301	pleural	-0.1195
-3.4072	pleurales	-0.1195
-3.4072	pmr	-0.1195
-3.4072	pn	-0.1195
-3.4072	podemos	-0.1195
-3.4072	poder	-0.1195
-3.1062	polimialgia	-0.1195
-2.1062	por	-0.2604
-3.4072	portadora	-0.1195
-3.4072	post	-0.1195
-2.9301	posterior	-0.1195
-3.4072	postquirúrgica	-0.1195
-3.1062	postquirúrgicos	-0.1523
-3.4072	precavos	-0.1195
-3.4072	precordial	-0.1195
-3.4072	prednisona	-0.1195
-3.4072	predominio	-0.1195
-2.8052	presenta	-0.1523
-3.4072	presentan	-0.1195
-3.4072	presentar	-0.1195
-3.1062	presente	-0.1195
-3.4072	presentes	-0.1195
-3.4072	prevascular	-0.1195
-3.1062	previa	-0.1195
-3.4072	previamente	-0.1195
-2.8052	previo	-0.2072
-3.1062	previos	-0.1195
-3.4072	primaria	-0.1195
-2.9301	probable	-0.1195
-3.4072	proceso	-0.1195
-3.4072	proctitis	-0.1195
-3.4072	profunda	-0.1195
-3.4072	progresión	-0.1195
-3.4072	propuesta	-0.1195
-3.4072	proximal	-0.1195
-3.4072	proximidad	-0.1195
-3.4072	próximos	-0.1195
-3.4072	pseudotumor	-0.1195
-3.4072	pt	-0.1195
-2.9301	puede	-0.1195
-2.6291	pulmonar	-0.1356
-2.9301	pulmonares	-0.1523
-3.4072	pulmón	-0.1195
-3.4072	pulpejos	-0.1195
-3.4072	punch	-0.1195
-3.4072	punto	-0.1195
-3.1062	páncreas	-0.1195
-3.4072	pélvica	-0.1195
-3.1062	pélvicas	-0.1195
-3.4072	pólipo	-0.1195
-2.1519	que	-0.2259
-3.4072	queda	-0.1195
-3.4072	quimioterápico	-0.1195
-3.4072	quinto	-0.1195
-3.1062	quirúrgica	-0.1195
-3.4072	quirúrgicas	-0.1195
-3.4072	quistes	-0.1195
-3.4072	radio	-0.1195
-3.4072	radioterapia	-0.1195
-3.4072	radiotrazador	-0.1195
-3.4072	re	-0.1195
-3.4072	reactiva	-0.1195
-3.4072	realiza	-0.1195
-3.4072	realizado	-0.1195
-2.9301	realizamos	-0.3346
-3.1062	recibió	-0.1195
-3.1062	recidiva	-0.1195
-3.4072	reciente	-0.1195
-3.4072	recomienda	-0.1195
-2.9301	recto	-0.1195
-3.4072	rectocólica	-0.1195
-3.4072	referencia	-0.1195
-3.4072	refiere	-0.1195
-3.4072	regiones	-0.1195
-3.1062	región	-0.1195
-3.4072	relacionado	-0.1195
-3.1062	relación	-0.1523
-3.4072	remisión	-0.1195
-3.4072	renal	-0.1195
-3.4072	reservorio	-0.1195
-3.4072	resolución	-0.1195
-3.4072	respecto	-0.1195
-2.9301	resto	-0.1638
-3.4072	resultan	-0.1195
-3.4072	resultando	-0.1195
-3.4072	retrocrurales	-0.1195
-3.4072	retroperitoneal	-0.1195
-3.1062	retroperitoneales	-0.1195
-3.4072	retrosomática	-0.1195
-3.4072	reumatica	-0.1195
-3.4072	reumática	-0.1195
-3.4072	revisión	-0.1195
-3.4072	rituximab	-0.1195
-3.4072	riñón	-0.1195
-2.2611	se	-0.2520
-3.4072	secundario	-0.1195
-3.4072	secundarios	-0.1195
-3.4072	segmentectomía	-0.1195
-3.4072	segmento	-0.1195
-2.9301	seno	-0.1195
-3.4072	sensibilidad	-0.1195
-3.4072	separación	-0.1195
-3.4072	septiembre	-0.1195
-3.4072	ser	-0.1195
-3.4072	sesil	-0.1195
-3.4072	sesiones	-0.1195
-3.4072	sexto	-0.1195
-3.1062	si	-0.1195
-3.4072	siendo	-0.1195
-3.4072	sigma	-0.1195
-3.4072	sigmoidectomía	-0.1195
-3.4072	significación	-0.1195
-3.4072	significativas	-0.1195
-3.1062	significativo	-0.1195
-3.1062	significativos	-0.1195
-3.4072	siguientes	-0.1195
-3.4072	simétrica	-0.1195
-2.2611	sin	-0.2102
-3.4072	sistémica	-0.1195
-3.4072	sjogren	-0.1195
-3.4072	sobre	-0.1195
-3.4072	solicita	-0.1195
-3.4072	solicitan	-0.1195
-3.1062	son	-0.1878
-3.4072	sospecha	-0.1195
-3.1062	sospechosa	-0.1878
-3.1062	sospechosas	-0.1878
-2.9301	su	-0.1195
-3.4072	subcarinal	-0.1195
-3.1062	subcentimétricas	-0.1195
-3.4072	subcentimétrico	-0.1195
-3.4072	subcortical	-0.1195
-2.8052	subcutáneo	-0.1523
-3.4072	subcutáneos	-0.1195
-2.9301	subpleural	-0.1523
-3.4072	sugestiva	-0.1195
-3.4072	sugestivas	-0.1195
-3.1062	sugestivo	-0.1878
-2.8052	sugestivos	-0.4596
-3.4072	sugiera	-0.1195
-3.4072	sugieren	-0.1195
-2.9301	supera	-0.1638
-3.4072	superior	-0.1195
-3.1062	superiores	-0.1195
-3.4072	supraaórticos	-0.1195
-2.7083	supraclavicular	-0.1456
-3.1062	supraclaviculares	-0.1878
-3.4072	suprarrenal	-0.1195
-2.9301	suprarrenales	-0.2409
-3.1062	sutura	-0.1195
-3.4072	síndrome	-0.1195
-3.1062	sólida	-0.1638
-3.4072	sólido	-0.1195
-2.6291	tamaño	-0.1294
-2.9301	también	-0.1195
-3.4072	tanto	-0.1195
-3.4072	tap	-0.1195
-3.4072	tardía	-0.1195
-3.4072	tardías	-0.1195
-3.4072	tardío	-0.1195
-3.4072	tejido	-0.1195
-3.4072	temporal	-0.1195
-3.4072	tener	-0.1195
-3.4072	teniendo	-0.1195
-2.9301	tercio	-0.1195
-3.4072	territorio	-0.1195
-3.4072	tibia	-0.1195
-3.4072	tiempo	-0.1195
-3.4072	tiene	-0.1195
-3.4072	tiroideo	-0.1195
-3.4072	tiroideos	-0.1195
-3.4072	tiroides	-0.1195
-2.9301	todas	-0.1638
-2.9301	todo	-0.1638
-3.1062	torácica	-0.1195
-3.1062	traducción	-0.1878
-3.4072	tras	-0.1195
-3.1062	tratada	-0.1195
-2.9301	tratamiento	-0.1638
-3.4072	tratarse	-0.1195
-3.4072	traumática	-0.1195
-3.4072	tres	-0.1195
-3.4072	trocantérica	-0.1195
-3.4072	trocánter	-0.1195
-3.4072	tronco	-0.1195
-3.1062	troncos	-0.1878
-3.4072	trxap	-0.1195
-3.4072	tumoración	-0.1195
-2.9301	tumoral	-0.2701
-2.9301	tumorales	-0.1195
-3.4072	técnica	-0.1195
-3.4072	tórax	-0.1195
-3.4072	uh	-0.1195
-2.8052	un	-0.1195
-2.6291	una	-0.1883
-3.4072	urgencias	-0.1195
-3.4072	uterino	-0.1195
-3.4072	vaginal	-0.1195
-3.4072	valoración	-0.1195
-3.4072	valorado	-0.1195
-2.8052	valorar	-0.1195
-3.1062	valores	-0.1878
-3.4072	varias	-0.1195
-3.4072	vascular	-0.1195
-3.1062	vasculítica	-0.1195
-3.4072	vasos	-0.1195
-3.1062	vena	-0.1195
-3.4072	venoso	-0.1195
-3.4072	ver	-0.1195
-3.1062	vertiente	-0.1523
-3.4072	vista	-0.1195
-3.4072	vocales	-0.1195
-2.7083	vs	-0.1411
-3.4072	vértebra	-0.1195
-3.4072	vértex	-0.1195
-2.4530	x	-0.2260
-3.4072	xelox	-0.1195
-3.4072	xifoides	-0.1195
-1.8390	y	-0.1452
-2.9301	ya	-0.1456
-3.4072	yugular	-0.1195
-2.9301	zona	-0.1638
-3.4072	ápofisis	-0.1195
-3.4072	áreas	-0.1195
-3.1062	órbita	-0.1878
-3.1062	ósea	-0.1195
-3.1062	óseas	-0.1638
-3.4072	último	-0.1195
-3.4072	útero	-0.1195

\2-grams: 
-1.5650	<s> *	-0.5714
-1.0280	<s> -	-0.3166
-3.0602	<s> PSA	-0.1374
-2.9575	<s> SUL	-0.1374
-2.4957	<s> a	-0.1374
-3.0602	<s> accesibles	-0.1374
-2.0239	<s> actividad	-0.4745
-2.6351	<s> actividades	-0.1279
-3.0602	<s> actual	-0.1374
-1.6786	<s> además	-0.7755
-2.4734	<s> adenopatía	-0.1374
-2.4305	<s> adenopatías	-0.1374
-2.5209	<s> al	-0.1279
-2.9140	<s> ambas	-0.1374
-3.0058	<s> aparición	-0.1374
-3.0602	<s> asimetría	-0.1374
-2.6351	<s> asimismo	-0.1279
-3.0602	<s> atelectasia	-0.1374
-1.8957	<s> aumento	-0.1298
-2.9575	<s> ausencia	-0.1374
-2.9575	<s> bazo	-0.1374
-3.0058	<s> biopsia	-0.1374
-1.8262	<s> cambios	-0.2307
-2.5936	<s> captación	-0.1374
-3.0602	<s> cerclajes	-0.1374
-3.0602	<s> colecistectomizado	-0.1374
-3.0602	<s> colostomía	-0.1374
-1.4765	<s> conclusión	-0.9516
-2.9575	<s> conglomerado	-0.1374
-3.0602	<s> dado	-0.1374
-2.9140	<s> derrame	-0.1374
-2.9140	<s> desde	-0.1374
-2.9140	<s> destaca	-0.1374
-3.0602	<s> destacamos	-0.1374
-3.0058	<s> dilatación	-0.1374
-3.0602	<s> discreto	-0.1374
-3.0602	<s> dispositivo	-0.1374
-1.9286	<s> distribución	-0.5714
-2.8745	<s> dos	-0.1374
-1.4601	<s> en	-0.1374
-2.0747	<s> engrosamiento	-0.1326
-3.0058	<s> es	-0.1374
-3.0602	<s> estadificación	-0.1374
-3.0058	<s> estos	-0.1374
-1.5631	<s> estructuras	-0.8724
-2.6679	<s> estudio	-0.1374
-2.2675	<s> foco	-0.1311
-2.0688	<s> ganglios	-0.1374
-1.7462	<s> glucemia	-0.5291
-3.0602	<s> glucemia:	-0.1374
-1.5143	<s> glándula	-0.9138
-3.0058	<s> glándulas	-0.1374
-3.0602	<s> granulomas	-0.1374
-1.9160	<s> hallazgos	-0.5714
-2.9140	<s> hay	-0.1374
-3.0602	<s> hernia	-0.1374
-2.8382	<s> hipermetabolismo	-0.1374
-2.9575	<s> histerectomía	-0.1374
-2.9140	<s> inespecíficas	-0.1374
-3.0602	<s> intensa	-0.1374
-2.9575	<s> intervenida	-0.1374
-1.6440	<s> la	-0.2708
-2.8745	<s> las	-0.1374
-2.0292	<s> lesión	-0.1326
-1.9077	<s> leve	-0.1298
-3.0602	<s> liquido	-0.1374
-1.5613	<s> los	-0.8724
-2.9575	<s> líquido	-0.1374
-2.9140	<s> mama	-0.1374
-1.9930	<s> metabolismo	-0.4745
-2.6138	<s> mujer	-0.1279
-2.6351	<s> mínimo	-0.1374
-2.5209	<s> múltiples	-0.1374
-0.8111	<s> no	-1.0943
-2.0514	<s> nódulo	-0.1326
-3.0602	<s> ocupación	-0.1374
-3.0602	<s> opacidad	-0.1374
-2.9575	<s> para	-0.1374
-3.0058	<s> pendiente	-0.1374
-3.0602	<s> placas	-0.1374
-2.3445	<s> por	-0.1374
-3.0602	<s> portadora	-0.1374
-2.9575	<s> probable	-0.1374
-3.0602	<s> proctitis	-0.1374
-1.6762	<s> realizamos	-0.7755
-3.0058	<s> recidiva	-0.1374
-3.0602	<s> refiere	-0.1374
-3.0602	<s> resolución	-0.1374
-1.5433	<s> se	-0.1866
-3.0602	<s> sigmoidectomía	-0.1374
-2.6233	<s> sin	-0.1374
-3.0602	<s> sjogren	-0.1374
-3.0602	<s> solicitan	-0.1374
-3.0058	<s> sutura	-0.1374
-2.2675	<s> todo	-0.3496
-3.0058	<s> valores	-0.1374
-1.5169	( 0	-0.2520
-1.4930	( 1	-0.1374
-2.2556	( 2	-0.1374
-2.3603	( 6	-0.1374
-2.3603	( 7	-0.1374
-2.5170	( SUL	-0.8724
-0.3710	( SULmax	-0.6709
-1.9792	( a	-0.1279
-2.5363	( bursitis	-0.1374
-2.5363	( cerebral	-0.1374
-2.5565	( cortical	-0.1374
-2.5565	( dada	-0.1374
-1.0010	( de	-0.6382
-2.5363	( descrita	-0.1374
-2.5565	( diciembre	-0.1374
-2.5565	( fin	-0.1374
-2.5565	( gastritis	-0.1374
-2.1053	( grado	-0.1374
-2.4985	( hay	-0.1374
-2.5363	( hilo	-0.1374
-2.5170	( histerectomía	-0.1374
-2.5565	( incluyendo	-0.1374
-2.0017	( la	-0.1374
-2.4808	( las	-0.1374
-2.5170	( laterocervicales	-0.1374
-2.5363	( marzo	-0.1374
-2.5363	( muslo	-0.1374
-2.4985	( nivel	-0.1374
-2.2991	( no	-0.1374
-2.5363	( polimialgia	-0.1374
-2.5363	( si	-0.1374
-2.3473	( sin	-0.1374
-2.5170	( supera	-0.1374
-2.5565	( ver	-0.1374
-2.5170	( ya	-0.1374
-0.6525	) ,	-0.2613
-0.5830	) .	-1.4165
-2.2337	) :	-0.1374
-2.3806	) adenopatía	-0.1374
-2.4709	) adyacente	-0.1374
-2.4432	) asocia	-0.1374
-2.4855	) así	-0.1279
-2.4855	) compatible	-0.1374
-2.2017	) con	-0.1374
-1.2510	) en	-0.1342
-1.4705	) hallazgos	-0.5714
-2.4568	) hay	-0.1374
-2.4855	) muestra	-0.1374
-2.4170	) múltiples	-0.1374
-2.2961	) no	-0.1374
-2.4855	) pendiente	-0.1374
-1.6495	) que	-0.1374
-2.4709	) realizamos	-0.1374
-1.9809	) se	-0.1374
-2.3363	) sin	-0.1374
-2.4709	) todas	-0.1279
-2.4432	) vs	-0.1374
-0.9979	) y	-0.2216
-2.4709	) zona	-0.1374
-1.0910	* abdomen	-0.5714
-1.0878	* cráneo	-0.5714
-1.0910	* músculo	-0.5714
-2.2547	, 1	-0.1374
-2.4262	, 3	-0.1374
-2.7950	, L3	-0.1374
-2.7950	, L4	-0.1374
-1.7624	, a	-0.6854
-2.8422	, actualmente	-0.1374
-2.5342	, adenopatía	-0.1374
-2.7525	, adyacente	-0.1374
-2.8422	, algunas	-0.1374
-2.8422	, algunos	-0.1374
-2.7137	, ambas	-0.1374
-2.7525	, ambos	-0.1374
-2.7525	, aorta	-0.1374
-2.6782	, asocia	-0.1374
-2.3931	, así	-0.1279
-2.0609	, aunque	-0.9138
-2.7950	, axilar	-0.1374
-2.3931	, axilares	-0.5291
-2.0447	, bazo	-0.5023
-2.7950	, compatibles	-0.1374
-1.4625	, con	-0.1326
-0.9259	, de	-0.6244
-2.3591	, destaca	-0.1374
-2.8422	, destacan	-0.1374
-2.7950	, diáfisis	-0.1374
-1.0090	, en	-0.5350
-2.8422	, g	-0.1374
-2.8422	, ganglionar	-0.1374
-2.3931	, glándulas	-0.3496
-2.6453	, hipermetabolismo	-0.1374
-2.6147	, hipermetabólicas	-0.1374
-2.6453	, hipermetabólico	-0.1279
-2.8422	, hueso	-0.1374
-2.8422	, hígado	-0.1374
-2.7950	, igualmente	-0.1374
-2.7525	, incremento	-0.1374
-2.3931	, inespecífica	-0.1374
-2.8422	, inespecífico	-0.1374
-2.8422	, inespecíficos	-0.1279
-2.7137	, inferior	-0.1374
-2.3896	, la	-0.1374
-2.5594	, leve	-0.1374
-2.3931	, lo	-0.1279
-2.7525	, mamaria	-0.1374
-2.7525	, medial	-0.1374
-2.7525	, mediastínica	-0.1374
-2.7525	, mediastínicas	-0.6382
-2.6782	, menor	-0.1374
-2.7950	, musculatura	-0.1374
-2.7137	, nivel	-0.1374
-1.6560	, no	-0.1374
-2.6453	, nódulo	-0.1374
-2.7525	, otra	-0.1374
-2.7137	, pared	-0.1374
-2.8422	, peritoneal	-0.1374
-2.7525	, plantea	-0.1374
-2.3398	, por	-0.1374
-2.7137	, presenta	-0.1374
-2.8422	, prevascular	-0.1374
-2.0609	, previamente	-0.6506
-2.3275	, pulmonar	-0.1374
-2.7950	, páncreas	-0.1374
-1.0416	, que	-0.3766
-2.7950	, recibió	-0.1374
-2.7950	, región	-0.1374
-2.8422	, resultan	-0.1374
-2.8422	, resultando	-0.1374
-1.4284	, se	-0.1290
-1.2744	, sin	-0.3749
-2.3931	, sospechosa	-0.1279
-2.3931	, sugestivo	-0.1279
-2.7525	, supera	-0.1374
-2.6782	, supraclavicular	-0.1374
-2.3931	, supraclaviculares	-0.5714
-2.3758	, suprarrenales	-0.2861
-2.8422	, sólido	-0.1374
-2.7525	, también	-0.1374
-2.4112	, teniendo	-0.1279
-2.7525	, todo	-0.1374
-2.7950	, tratada	-0.1374
-2.3275	, una	-0.1374
-2.0080	, y	-0.2861
-2.0447	, ya	-0.1374
-2.7525	, zona	-0.1374
-2.7950	, ósea	-0.1374
-1.7216	- 1	-0.1374
-1.1726	- 2	-0.3517
-2.3614	- C7	-0.1374
-2.3614	- IV	-0.1374
-2.3350	- L4	-0.1374
-2.3350	- L5	-0.1374
-2.3614	- S1	-0.1374
-2.1850	- TC	-0.1374
-2.3101	- abdomen	-0.7175
-2.1502	- actividad	-0.1279
-2.3614	- actínicos	-0.1374
-2.1672	- adenopatía	-0.1374
-1.8113	- adenopatías	-0.1374
-1.8686	- afectación	-0.1374
-2.3350	- alteración	-0.1374
-2.1338	- aumento	-0.1374
-2.3614	- cava	-0.1311
-2.3614	- clavicular	-0.1374
-2.3614	- claviculares	-0.1374
-2.3614	- costo	-0.1374
-2.2643	- cráneo	-0.7175
-2.3614	- cuello	-0.9516
-2.3350	- degenerativa	-0.1279
-2.3350	- dilatación	-0.1374
-2.3614	- encefálicos	-0.5714
-1.9050	- engrosamiento	-0.1311
-1.9146	- esquelético	-0.3917
-2.3101	- foco	-0.1374
-2.3101	- glucemia	-0.1279
-2.2431	- hipermetabolismo	-0.1374
-2.3614	- infraclaviculares	-0.1374
-2.0599	- la	-0.1374
-2.3614	- laríngeas	-0.8724
-1.8349	- lesión	-0.2520
-2.3614	- mediastínicos	-0.1374
-2.3350	- moderado	-0.1374
-2.3614	- musculo	-0.7175
-2.2431	- nódulo	-0.1374
-2.3350	- partes	-0.1374
-2.3101	- pelvis	-0.6506
-2.3350	- persisten	-0.1374
-2.3614	- pezón	-0.1374
-2.3614	- progresión	-0.1374
-2.3614	- punch	-0.1374
-2.3350	- pélvicas	-0.7175
-2.3101	- resto	-0.1374
-2.1027	- sin	-0.1374
-2.3614	- subcortical	-0.1374
-2.3614	- tórax	-0.5462
-0.1971	. </s>	0.0000
-2.7239	. 0	-0.1374
-1.4714	. 1	-0.3450
-1.6589	. 2	-0.4372
-1.6640	. 3	-0.3027
-1.4781	. 4	-0.2197
-1.5620	. 5	-0.2956
-1.4776	. 6	-0.4048
-1.3468	. 7	-0.2649
-1.5626	. 8	-0.3889
-1.5620	. 9	-0.1303
-2.7594	. TC	-0.1374
-2.8187	. todas	-0.1374
-0.5137	/ 0	-0.3428
-1.1654	/ 1	-0.1374
-0.7265	/ 2	-1.0485
-2.0034	/ degenerativa	-0.1374
-2.0099	/ dl	-0.6272
-2.0034	/ inguinal	-0.1279
-2.0099	/ ml	-0.1279
-1.9102	/ no	-0.1279
-2.0099	/ paraaórtica	-0.1374
-1.9969	/ pleural	-0.1374
-1.5489	0 )	-0.2302
-1.1483	0 .	-0.2406
-1.6287	0 /	-0.1374
-1.2869	0 1	-0.4210
-1.1004	0 2	-0.6431
-1.6327	0 3	-0.2861
-2.0239	0 4	-0.6506
-2.0239	0 5	-0.1374
-1.6409	0 6	-0.4745
-1.3130	0 9	-0.1374
-2.1493	0 dolor	-0.1374
-2.1363	0 mediante	-0.1374
-1.6662	0 mg	-0.1279
-1.6662	0 minutos	-0.1311
-1.1148	0 mm	-0.1326
-2.1493	0 uh	-0.1374
-2.0547	0 x	-0.1374
-1.7722	1 (	-0.1374
-1.9842	1 )	-0.1374
-1.3442	1 ,	-0.4213
-1.0990	1 .	-0.4971
-1.8423	1 /	-0.1279
-1.3400	1 0	-0.1374
-1.1901	1 1	-0.1336
-1.1947	1 2	-0.1311
-1.5321	1 3	-0.1326
-1.8630	1 4	-0.1374
-1.5395	1 5	-0.1326
-2.2086	1 7	-0.1374
-1.3432	1 8	-0.1350
-1.2062	1 9	-0.2708
-1.8792	1 cm	-0.3830
-1.3497	1 mCi	-0.4745
-1.5523	1 mg	-0.3496
-1.8903	1 minutos	-0.1279
-2.2453	1 mm	-0.1374
-2.3620	1 muslo	-0.1374
-1.5472	1 x	-0.1311
-1.2309	18F-FDG )	-0.1374
-1.1028	18F-FDG ,	-0.5480
-0.7622	18F-FDG .	-0.3496
-1.3101	18F-FDG para	-0.9516
-1.6584	2 (	-0.1374
-1.6385	2 )	-0.1326
-1.4108	2 ,	-0.5480
-1.0973	2 .	-0.3973
-1.7412	2 /	-0.1298
-1.0046	2 0	-0.6322
-1.9692	2 1	-0.1374
-1.4155	2 2	-0.1374
-1.7628	2 4	-0.1374
-2.1161	2 5	-0.1374
-1.7573	2 6	-0.1374
-2.1038	2 7	-0.1374
-1.7684	2 8	-0.1374
-1.7628	2 9	-0.1374
-2.1038	2 adenopatías	-0.1374
-1.4572	2 años	-0.1311
-2.2633	2 b	-0.1374
-2.1553	2 cm	-0.1311
-1.5938	2 en	-0.1374
-2.2137	2 lesiones	-0.1374
-1.7914	2 mg	-0.1279
-2.1835	2 minutos	-0.1279
-1.4464	2 mm	-0.2861
-2.0470	2 no	-0.1374
-1.7797	2 x	-0.1374
-1.4550	3 )	-0.3517
-1.4253	3 ,	-0.1374
-1.0550	3 .	-0.1374
-1.5333	3 /	-0.2861
-1.5452	3 0	-0.1374
-1.4960	3 1	-0.1374
-1.9298	3 5	-0.1374
-1.9202	3 6	-0.1374
-1.9202	3 7	-0.1374
-2.0527	3 c	-0.1374
-1.9600	3 cm	-0.1374
-1.4805	3 en	-0.1374
-2.0527	3 horas	-0.1374
-1.9814	3 mCi	-0.1374
-2.0039	3 metástasis	-0.1374
-1.5574	3 mm	-0.1374
-1.5963	3 pequeñas	-0.1279
-2.0527	3 pn	-0.1374
-1.5616	3 x	-0.1311
-1.4278	4 )	-0.2520
-1.4385	4 ,	-0.1279
-0.8770	4 .	-0.1763
-1.1651	4 /	-0.4511
-1.7969	4 1	-0.1374
-1.8243	4 2	-0.1374
-1.8930	4 6	-0.1374
-1.5120	4 8	-0.1374
-1.9014	4 9	-0.1374
-1.9099	4 actividad	-0.1374
-1.5295	4 años	-0.1279
-1.9951	4 b	-0.1374
-1.9274	4 cm	-0.1279
-1.9457	4 mCi	-0.1374
-1.5154	4 mm	-0.1279
-1.9274	4 x	-0.1374
-0.9867	4R (	-0.1374
-1.0385	4R )	-0.1374
-0.9472	4R ,	-0.1374
-1.6995	5 )	-0.1326
-1.4202	5 ,	-0.2861
-0.8459	5 .	-0.1866
-1.8396	5 /	-0.1374
-1.7703	5 1	-0.1374
-1.7967	5 2	-0.1374
-1.8472	5 3	-0.1374
-1.8707	5 4	-0.1374
-1.8627	5 6	-0.1374
-1.8627	5 7	-0.1374
-1.8789	5 8	-0.1374
-1.9221	5 años	-0.1374
-1.8957	5 cm	-0.1374
-1.9601	5 hepático	-0.1374
-1.4911	5 mg	-0.1374
-1.1392	5 mm	-0.1374
-1.8957	5 x	-0.1374
-1.4413	6 )	-0.2160
-1.4152	6 ,	-0.6506
-1.2431	6 .	-0.1949
-1.8792	6 /	-0.2861
-1.9065	6 0	-0.1279
-1.7988	6 1	-0.1374
-1.4961	6 2	-0.1311
-1.9160	6 5	-0.1374
-1.9065	6 6	-0.1374
-1.9065	6 7	-0.1374
-1.5383	6 8	-0.1311
-1.9160	6 9	-0.1374
-1.5589	6 años	-0.1374
-1.9458	6 cm	-0.1374
-1.4701	6 en	-0.1374
-1.9669	6 hallazgos	-0.1374
-1.9669	6 mCi	-0.1374
-1.9669	6 mg	-0.1374
-1.9669	6 minutos	-0.1374
-1.2050	6 mm	-0.1311
-1.6912	7 )	-0.1279
-1.3985	7 ,	-0.6506
-1.2161	7 .	-0.1311
-1.8677	7 0	-0.1374
-1.7670	7 1	-0.1374
-1.8765	7 4	-0.1374
-1.8765	7 5	-0.1374
-1.8677	7 6	-0.1374
-1.8677	7 7	-0.1374
-1.8854	7 actividad	-0.1374
-1.9040	7 cm	-0.1374
-1.5065	7 mCi	-0.1279
-1.8341	7 metabolismo	-0.1374
-1.9233	7 minutos	-0.1374
-1.1557	7 mm	-0.3496
-1.5298	7 ng	-0.1279
-1.8590	7 se	-0.1279
-1.9040	7 x	-0.1374
-1.6970	7 y	-0.1374
-1.3366	8 (	-0.1374
-1.4448	8 )	-0.2160
-1.4251	8 ,	-0.1279
-0.8963	8 .	-0.1347
-1.8833	8 /	-0.1374
-1.5318	8 0	-0.1374
-1.8044	8 1	-0.1374
-1.9194	8 4	-0.1374
-1.9101	8 6	-0.1374
-2.0135	8 SUL	-0.1374
-1.9798	8 años	-0.1374
-1.9485	8 cm	-0.2861
-1.3903	8 de	-0.1374
-1.5555	8 mCi	-0.1279
-1.9691	8 mg	-0.1374
-1.9691	8 minutos	-0.1279
-1.9386	8 mm	-0.1374
-2.0375	8 radioterapia	-0.1374
-1.9010	8 se	-0.1374
-1.9485	8 x	-0.1374
-1.4547	9 )	-0.1342
-1.0654	9 ,	-0.2520
-1.2694	9 .	-0.1326
-1.1971	9 /	-0.1374
-1.9199	9 0	-0.1374
-1.8200	9 1	-0.1374
-1.9376	9 8	-0.1374
-1.5395	9 9	-0.1374
-1.9851	9 años	-0.1374
-1.9560	9 cm	-0.1374
-1.9752	9 mCi	-0.1374
-1.5579	9 mg	-0.1279
-1.5579	9 minutos	-0.1279
-1.5467	9 mm	-0.1311
-1.2087	9 x	-0.1326
-2.2088	: *	-0.5714
-1.3343	: -	-0.3207
-0.9367	: 1	-0.2382
-2.0395	: 3	-0.1374
-1.7165	: 8	-0.1374
-1.7114	: 9	-0.1374
-1.0542	: SULmax	-0.5257
-2.2088	: alteración	-0.1374
-2.0731	: aumento	-0.1374
-2.2250	: carcinoma	-0.1374
-2.1932	: conglomerado	-0.1374
-1.7539	: distribución	-0.5714
-2.1635	: dos	-0.1374
-1.5716	: en	-0.1374
-2.1494	: hipermetabolismo	-0.1374
-2.2088	: infiltración	-0.1374
-1.7216	: lesión	-0.1374
-2.2088	: mediastino	-0.1374
-2.1357	: múltiples	-0.1374
-1.6820	: no	-0.8724
-2.2088	: persisten	-0.1374
-2.2250	: pt	-0.1374
-2.1635	: supraclavicular	-0.1374
-2.2250	: tiempo	-0.1374
-2.1494	: una	-0.1374
-2.2088	: vertiente	-0.1374
-0.6075	C3 a	-0.1279
-0.6034	C5 con	-0.1279
-0.8440	C6 (	-0.1374
-0.8836	C6 -	-0.1374
-0.5792	C7 (	-0.1374
-0.8440	CIE (	-0.1374
-0.8052	CIE de	-0.3496
-0.5992	D10 y	-0.1374
-0.5792	D11 (	-0.1374
-0.5792	FE (	-0.1374
-0.9867	I (	-0.1374
-1.0385	I )	-0.1374
-0.9472	I ,	-0.1374
-0.6003	III -	-0.1374
-0.6101	IV izquierdo	-0.1374
-0.8836	L3 -	-0.1374
-0.8052	L3 de	-0.1374
-0.8152	L4 ,	-0.1374
-0.8836	L4 -	-0.1374
-0.8836	L5 -	-0.1374
-0.8817	L5 y	-0.1374
-0.9867	LID (	-0.1279
-0.9472	LID ,	-0.1374
-1.0862	LID pulmonar	-0.1374
-0.5992	LSD y	-0.1374
-0.5633	LSI ,	-0.1374
-0.6034	MSI con	-0.1374
-1.0428	PET -	-0.1374
-1.0815	PET TC	-0.1374
-1.0910	PET puede	-0.1374
-1.1778	PET-CT a	-0.1279
-1.0158	PET-CT de	-0.1374
-1.2122	PET-CT desde	-0.8267
-1.2122	PET-CT previo	-0.1374
-0.6054	PSA :	-0.1374
-1.3156	RM esplénica	-0.1374
-1.3055	RM hepática	-0.1374
-0.4911	RM previa	-0.1374
-0.5633	S1 ,	-0.1374
-1.0385	SUL )	-0.8724
-0.9671	SUL en	-0.1374
-1.0942	SUL mediastínico	-0.1374
-1.8246	SULmax -	-0.2861
-0.8593	SULmax 1	-0.8465
-0.7579	SULmax 2	-0.9331
-1.2056	SULmax 3	-0.3262
-1.9590	SULmax 4	-0.6840
-1.0052	SULmax 5	-0.7175
-1.5489	SULmax 6	-0.6506
-1.9522	SULmax 7	-0.7175
-1.9659	SULmax 8	-0.1374
-1.9590	SULmax 9	-0.1311
-1.5181	SULmax :	-0.1279
-0.6112	SUV se	-0.8724
-1.4369	TC (	-0.1374
-1.3601	TC ,	-0.1374
-1.3474	TC .	-0.1374
-1.6841	TC basal	-0.1374
-0.6605	TC previo	-0.3312
-1.6886	TC previos	-0.1374
-0.8712	TC tap	-0.1311
-0.5792	VI (	-0.1374
-1.9884	a C5	-0.1279
-1.9039	a SULmax	-0.1374
-1.9781	a carillas	-0.1374
-1.9884	a dicha	-0.1374
-1.1543	a estudio	-0.1326
-1.9884	a grapas	-0.1374
-1.9681	a histerectomía	-0.1374
-1.9884	a istmo	-0.1374
-1.4760	a la	-0.1311
-1.9488	a las	-0.1279
-0.9594	a los	-0.5664
-1.9583	a nivel	-0.1374
-1.5302	a pesar	-0.1279
-1.9681	a tercio	-0.8267
-1.5195	a valorar	-0.1342
-1.9884	a ápofisis	-0.1374
-0.6137	abdomen -	-0.9516
-1.0663	abdomen a	-0.1374
-0.7061	abdominal (	-0.1374
-1.0355	abdominal .	-0.1374
-1.1937	abdominal derecha	-0.1374
-0.5992	abdominales y	-0.1374
-0.6003	abdomino -	-0.7175
-0.6170	accesibles para	-0.1374
-0.6003	acromion -	-0.1374
-0.5577	activación de	-0.1374
-1.4066	actividad .	-0.6506
-0.8800	actividad de	-0.4745
-1.4607	actividad en	-0.7755
-1.3187	actividad hepática	-0.5714
-0.6169	actividad inflamatoria	-0.4244
-1.3187	actividad metabólica	-0.1374
-1.7841	actividad vasculítica	-0.1311
-0.5577	actividades de	-0.1279
-0.6181	actual elevación	-0.1374
-1.0878	actualidad asocia	-0.1374
-1.0677	actualidad no	-0.1374
-1.0894	actualidad un	-0.1374
-0.5714	actualmente en	-0.1374
-0.6176	actínica diagnosticada	-0.1374
-0.5605	actínicos .	-0.1374
-0.6034	acá con	-0.1374
-0.8152	además ,	-0.1374
-0.9049	además se	-0.1374
-0.8052	adenocarcinoma de	-0.1374
-0.9186	adenocarcinoma mucinoso	-0.1374
-0.5633	adenoma ,	-0.1374
-1.3994	adenopatía (	-0.1374
-1.7198	adenopatía 4R	-0.1374
-1.7198	adenopatía axilar	-0.1374
-1.0980	adenopatía en	-0.1279
-1.2566	adenopatía hipermetabólica	-0.1279
-1.7198	adenopatía interaorto	-0.1279
-1.7261	adenopatía interaortocava	-0.1374
-1.7198	adenopatía ipsilateral	-0.1374
-1.2631	adenopatía patológica	-0.1279
-1.7012	adenopatía supraclavicular	-0.1374
-1.9316	adenopatías abdominales	-0.1374
-1.9316	adenopatías abdomino	-0.7175
-1.9226	adenopatías axilares	-0.3496
-1.1122	adenopatías cervicales	-0.3312
-1.4644	adenopatías en	-0.1279
-1.9051	adenopatías hiliares	-0.1374
-0.8993	adenopatías hipermetabólicas	-0.1326
-1.9138	adenopatías laterocervicales	-0.1374
-1.8721	adenopatías levemente	-0.1374
-1.9138	adenopatías mediastínicas	-0.1374
-1.4727	adenopatías patológicas	-0.1374
-1.9316	adenopatías significativas	-0.1374
-1.9226	adenopatías subcentimétricas	-0.1374
-1.9226	adenopatías supraclaviculares	-0.1374
-1.9138	adenopatías tumorales	-0.1374
-0.6176	adenopático cervical	-0.1374
-0.6176	administra contraste	-0.1279
-0.8052	administración de	-0.8724
-0.9154	administración i.v.	-0.1279
-0.5577	adquisición de	-0.1279
-1.0239	adyacente .	-0.1374
-1.1778	adyacente a	-0.1374
-1.2059	adyacente al	-0.1374
-1.0158	adyacente de	-0.1374
-0.8102	adyuvante .	-0.1374
-0.9186	adyuvante finalizada	-0.1374
-0.6144	aerostática conocida	-0.1279
-0.5577	afecta de	-0.1374
-1.4836	afectación adenopatía	-0.1374
-1.0540	afectación intersticial	-0.1279
-1.0554	afectación metastásica	-0.1374
-1.4985	afectación pulmonar	-0.1374
-1.5099	afectación tumoral	-0.1279
-1.5138	afectación vasculítica	-0.1374
-0.6133	afectas SULmax	-0.1374
-0.6080	afinidad por	-0.1374
-1.4600	al comparar	-0.1279
-1.4563	al lean	-0.1374
-1.4600	al menos	-0.1374
-1.4600	al pectoral	-0.1374
-1.4600	al pólipo	-0.1374
-1.4600	al quinto	-0.1374
-1.4600	al tratarse	-0.1374
-0.5577	algunas de	-0.1374
-0.5577	algunos de	-0.1374
-0.5577	alrededor de	-0.1374
-0.6181	alteraciones morfometabólicas	-0.1374
-0.4179	alteración de	-0.1279
-1.5176	ambas articulaciones	-0.1374
-1.5176	ambas cuerdas	-0.1374
-1.5176	ambas manos	-0.1374
-1.5176	ambas parótidas	-0.1374
-1.5176	ambas presentan	-0.1374
-1.5176	ambas regiones	-0.1374
-1.0525	ambas suprarrenales	-0.1279
-1.0926	ambos lóbulos	-0.1311
-1.0926	ambos muslos	-0.1374
-1.0894	ambos sugestivos	-0.1374
-0.5605	amplificado .	-0.1374
-0.6181	anexectomía omentectomía	-0.1374
-0.8440	ano (	-0.1374
-0.8152	ano ,	-0.1374
-0.6181	ante brote	-0.1374
-0.5577	antecedente de	-0.1279
-0.5987	antecedentes )	-0.1374
-0.8052	anterior de	-0.1374
-0.9028	anterior izquierda	-0.1374
-0.6176	anteriormente vena	-0.1374
-0.6181	antro gástrico	-0.1374
-0.8440	anómalo (	-0.1374
-0.8102	anómalo .	-1.0485
-1.2143	aorta abdominal	-0.1374
-1.2186	aorta ascendente	-0.1374
-1.2039	aorta ni	-0.1374
-1.2164	aorta torácica	-0.1374
-0.6054	ap :	-0.1374
-0.6181	aparente plano	-0.1374
-0.8102	aparición .	-0.1279
-0.8052	aparición de	-0.1374
-0.6181	aporta informes	-0.1374
-0.8926	aprox 1	-0.1374
-0.8967	aprox 2	-0.1374
-0.4543	arco costal	-0.1279
-0.6003	areola -	-0.1279
-0.6154	arteria pulmonar	-0.1374
-0.6181	articulaciones esterno	-0.1374
-0.6181	articulación acromion	-0.1374
-0.9186	articulares contra	-0.1374
-0.9175	articulares izquierdas	-0.1279
-0.5605	asas .	-0.4745
-0.5992	ascendente y	-0.1374
-0.6154	asimetría metabólica	-0.1374
-0.5633	asimismo ,	-0.1279
-1.6634	asocia afectación	-0.1374
-1.6315	asocia aumento	-0.1374
-1.6803	asocia calcinosis	-0.1374
-1.6634	asocia hipermetabolismo	-0.1374
-1.2148	asocia leve	-0.1279
-1.6860	asocia línea	-0.1374
-1.2227	asocia menor	-0.1279
-1.6066	asocia metabolismo	-0.1374
-1.2287	asocia moderado	-0.1279
-0.9596	asociado ,	-0.1374
-0.5765	asociado .	-0.3496
-0.6096	asocian metabolismo	-0.1374
-0.4540	así como	-0.1326
-0.6181	atelectasia laminar	-0.1374
-1.0942	aumenta discretamente	-0.1374
-1.0753	aumenta el	-0.1374
-0.9671	aumenta en	-0.1279
-0.5577	aumentadas de	-0.1374
-0.6181	aumentado respecto	-0.1374
-0.7600	aumento de	-0.1336
-0.2204	aumento del	-1.1029
-1.8203	aumento focal	-0.1374
-0.6165	aunque hay	-0.9138
-0.5739	ausencia de	-0.1374
-1.0929	ausencia quirúrgica	-0.1374
-0.5714	avanzada en	-0.1374
-0.6080	avidez por	-0.1374
-0.6112	axila derecha	-0.1374
-0.8440	axilar (	-0.1374
-0.9049	axilar derecha	-0.1374
-0.5791	axilares ,	-0.8267
-1.0843	axilares ni	-0.1374
-1.5182	años afecta	-0.1374
-1.0232	años con	-0.1326
-0.6948	años diagnosticada	-0.3496
-1.5182	años diagnosticado	-0.1374
-1.5113	años intervenida	-0.1374
-0.5633	aórtico ,	-0.1374
-0.8152	b ,	-0.1374
-0.9186	b n	-0.1374
-0.9186	baja afinidad	-0.1374
-0.9186	baja avidez	-0.1374
-0.5577	bajas de	-0.1374
-0.9404	basal .	-0.1374
-1.0573	basal :	-0.1374
-1.0831	basal ni	-0.1374
-0.5605	base .	-0.3496
-1.1568	bazo (	-0.1374
-1.1028	bazo ,	-0.1374
-1.0846	bazo de	-0.1374
-0.8217	bazo y	-0.5871
-0.9671	bilateral en	-0.1374
-1.0815	bilateral leve	-0.1374
-1.0399	bilateral y	-0.1374
-1.0936	bilaterales .	-0.1374
-1.2675	bilaterales a	-0.1374
-1.1298	bilaterales en	-0.1374
-0.8457	bilaterales levemente	-0.1311
-0.5633	bilobulado ,	-0.1374
-0.8836	biopsia -	-0.1374
-0.8102	biopsia .	-0.1374
-0.9867	blandas (	-0.1374
-1.0385	blandas )	-0.1374
-1.0573	blandas :	-0.1374
-0.6181	body masa	-0.8724
-0.5714	braquiterápia en	-0.1374
-0.5792	brazos (	-0.1374
-0.5714	brote en	-0.1374
-0.8807	bursitis )	-0.1374
-0.9186	bursitis isquiática	-0.1374
-0.6181	c m	-0.1374
-0.6181	calcificación heterotópica	-0.1279
-0.6160	calcificada hipermetabólica	-0.1279
-0.5714	calcificadas en	-0.1374
-0.8152	calcificados ,	-0.1374
-0.9143	calcificados bilaterales	-0.1374
-1.0926	calcinosis cervical	-0.1374
-1.0514	calcinosis con	-0.1279
-1.0831	calcinosis conocida	-0.1279
-1.1899	cambios de	-0.1311
-0.6373	cambios inflamatorios	-0.2861
-1.4575	cambios postquirúrgicos	-0.1374
-1.4606	cambios secundarios	-0.1374
-1.4575	cambios significativos	-0.1374
-1.1568	captación (	-0.1374
-1.3101	captación bilateral	-0.1374
-1.3151	captación difusa	-0.1374
-0.7787	captación en	-0.1374
-0.5792	captante (	-0.1374
-0.6176	caracterizable metabólicamente	-0.1374
-0.8102	caracterizables .	-0.1374
-0.9175	caracterizables metabólicamente	-0.1374
-0.6165	características inespecíficas	-0.1374
-0.6181	carcinoma ductal	-0.1374
-0.4543	carillas articulares	-0.1311
-0.8440	cava (	-0.1374
-0.9112	cava conocida	-0.1279
-0.6181	cayado aórtico	-0.1374
-0.6054	cea :	-0.1374
-0.6165	celular subcutáneo	-0.1374
-0.5605	centinelas .	-0.1374
-0.6112	central sin	-0.1374
-0.5792	centro (	-0.1374
-0.8052	centrolobulillar de	-0.1374
-0.8298	centrolobulillar en	-0.1374
-0.5577	cerclajes de	-0.1374
-0.9472	cerebral ,	-0.1374
-0.9404	cerebral .	-0.9138
-1.0677	cerebral no	-0.1374
-0.5792	cerebrales (	-0.1374
-0.8102	cervical .	-0.1374
-0.8298	cervical en	-0.1374
-1.0322	cervicales ,	-0.4745
-1.2101	cervicales bilaterales	-0.1374
-1.0158	cervicales de	-0.1374
-1.2059	cervicales hipermetabólicas	-0.1374
-0.6181	cintura escapular	-0.1374
-0.6154	circunferencial hipermetabólico	-0.1374
-0.9186	cirugía endoscópica	-0.1374
-0.9186	cirugía reciente	-0.1374
-0.6176	clara traducción	-0.1374
-0.6101	clavicular izquierda	-0.1374
-0.5792	claviculares (	-0.1374
-0.5605	clínicamente .	-0.1374
-0.3209	cm )	-0.3166
-0.8838	cm ,	-0.1374
-1.4738	cm .	-0.1374
-1.5181	cm en	-0.1374
-1.7048	cm que	-0.1374
-0.5605	colecistectomizado .	-0.1374
-0.5605	colon .	-0.1374
-0.5605	colonoscopia .	-0.1374
-0.5714	colostomía en	-0.1374
-1.2101	como dos	-0.1374
-1.0565	como en	-0.1374
-1.2186	como mesentéricos	-0.1374
-1.2186	como retrocrurales	-0.1374
-0.6034	compara con	-0.1326
-0.6034	comparar con	-0.1374
-0.4456	compatible con	-0.1279
-0.4456	compatibles con	-0.1279
-0.6181	complejo areola	-0.1279
-0.8440	completo (	-0.1374
-0.8977	completo a	-0.1374
-0.5577	componente de	-0.1374
-0.6165	comportamiento metabólico	-0.1374
-0.5992	comprime y	-0.1374
-0.9049	común derecha	-0.1374
-0.9028	común izquierda	-0.1374
-2.3021	con PET-CT	-0.1374
-1.5110	con SULmax	-0.1374
-2.1857	con TC	-0.1374
-2.1529	con actividad	-0.4745
-2.1225	con adenopatías	-0.1374
-2.3490	con adquisición	-0.1279
-1.5257	con afectación	-0.1279
-2.3490	con antecedente	-0.1279
-2.3490	con ap	-0.1279
-2.3490	con aparente	-0.1374
-2.1374	con aumento	-0.1374
-1.8833	con ausencia	-0.1279
-2.3249	con bursitis	-0.1374
-2.3021	con calcinosis	-0.1279
-2.2804	con cambios	-0.1374
-2.3490	con componente	-0.1374
-2.3249	con depósito	-0.1374
-2.3490	con disestesias	-0.1374
-2.3249	con dosis	-0.1374
-1.8058	con el	-0.6840
-2.3021	con enfermedad	-0.1374
-1.8130	con estudio	-0.1374
-2.3249	con estudios	-0.1374
-1.5332	con etiología	-0.4621
-2.3490	con ig	-0.1374
-1.4865	con la	-0.1293
-2.3490	con lenta	-0.1374
-1.3177	con leve	-0.1326
-2.2597	con menor	-0.1374
-2.0673	con metabolismo	-1.0766
-1.8666	con metástasis	-0.1326
-2.3021	con neoplasia	-0.1326
-2.2400	con nódulos	-0.1374
-2.3490	con patología	-0.1374
-2.3490	con pmr	-0.1374
-2.3490	con quistes	-0.1374
-2.3490	con rituximab	-0.1374
-2.3249	con sutura	-0.1279
-2.3490	con síndrome	-0.1374
-2.3490	con tres	-0.1374
-2.3490	con tumoración	-0.1374
-2.3490	con áreas	-0.1279
-0.6054	conclusión :	-0.9516
-0.6080	condicionada por	-0.1374
-0.6133	confirma adenopatía	-0.1374
-0.6181	confirmar adenoma	-0.1374
-0.9404	conglomerado .	-0.1374
-1.0942	conglomerado adenopático	-0.1374
-1.0878	conglomerado supraclavicular	-0.1374
-1.0273	conocida ,	-0.3496
-1.0214	conocida .	-0.3496
-1.3555	conocida en	-0.1374
-0.5760	conocida por	-0.2520
-1.5537	conocida que	-0.1374
-0.6080	conocidas por	-0.1374
-0.6096	consideración la	-0.9138
-0.6091	considerar que	-0.1374
-0.5714	consulta en	-0.1374
-0.6181	contra laterales	-0.1374
-0.9533	contraste .	-0.1374
-0.6288	contraste i.v.	-0.1311
-0.5633	control ,	-0.1374
-0.5987	controles )	-0.1374
-0.6034	correlacionamos con	-0.1374
-0.6149	corresponder al	-0.1374
-0.6181	cortical temporal	-0.1374
-0.6003	cortico -	-0.1374
-0.6138	costal derecho	-0.1374
-0.6003	costo -	-0.1374
-0.6075	craneal a	-0.8267
-0.5633	craneoencefálicas ,	-0.1374
-0.6160	cresta iliaca	-0.1374
-0.5633	cricoaritenoidea ,	-0.1374
-0.2772	cráneo -	-0.9138
-1.3131	cráneo hasta	-0.1374
-0.5605	crónica .	-0.1374
-0.6181	cuadrado lumbar	-0.1374
-0.6165	cuadrante inferior	-0.1279
-0.6176	cuadrantes superiores	-0.1374
-0.6091	cual no	-0.1279
-0.6003	cuello -	-0.9516
-0.9018	cuenta la	-0.1374
-0.9154	cuenta los	-0.1279
-0.6181	cuerdas vocales	-0.1374
-0.6303	cuerpo completo	-0.1374
-1.0943	cuerpo uterino	-0.1374
-0.6176	cutáneo nodular	-0.1279
-0.5633	cálcico ,	-0.1374
-0.9470	cúpula de	-0.1374
-0.6303	cúpula vaginal	-0.1311
-0.6096	dada la	-0.1374
-0.6091	dado que	-0.1374
-2.1510	de 0	-0.7175
-1.8138	de 1	-0.2396
-2.7278	de 18F-FDG	-0.6272
-1.8399	de 2	-0.2520
-2.1243	de 3	-0.1374
-1.7414	de 4	-0.1336
-1.9129	de 5	-0.1374
-2.1510	de 6	-0.2861
-1.9050	de 7	-0.1336
-2.1794	de 8	-0.3830
-2.1650	de 9	-0.1311
-2.7278	de C6	-0.1374
-2.6347	de RM	-0.1374
-2.7831	de SUV	-0.8724
-2.4637	de TC	-0.1374
-2.6788	de abdomen	-0.1374
-1.7468	de actividad	-0.6258
-2.0105	de adenocarcinoma	-0.2861
-2.3632	de adenopatías	-0.1374
-1.9816	de ambas	-0.1311
-2.3165	de aorta	-0.1374
-2.7831	de aprox	-0.1374
-2.7831	de arteria	-0.1374
-2.3587	de base	-0.3496
-2.7831	de brazos	-0.1374
-2.7831	de calcificación	-0.1279
-2.6788	de calcinosis	-0.1279
-2.7831	de características	-0.1374
-2.7278	de carillas	-0.1279
-2.7831	de colon	-0.1374
-2.7831	de control	-0.1374
-2.6788	de cuerpo	-0.1374
-2.6788	de cúpula	-0.1374
-2.7831	de dedos	-0.1374
-2.7278	de densidad	-0.1374
-2.7278	de dermatomiositis	-0.1374
-2.7831	de diámetro	-0.3496
-2.7278	de ellas	-0.1374
-2.7831	de ellos	-0.1374
-2.7831	de endometrio	-0.1374
-2.7831	de enfisema	-0.1374
-2.7831	de esclerosis	-0.1374
-2.7831	de esplenosis	-0.1374
-2.7278	de esta	-0.1374
-2.7831	de esternotomía	-0.1374
-2.7831	de estimulación	-0.1374
-2.7278	de estructura	-0.1374
-2.6347	de etiología	-0.2520
-2.7831	de fractura	-0.1374
-2.7831	de fulguración	-0.1374
-2.6788	de ganglios	-0.1374
-2.6347	de glándula	-0.1374
-2.7278	de grandes	-0.1374
-1.9911	de hasta	-0.8724
-2.7831	de hiato	-0.1374
-2.7831	de hipercaptación	-0.4991
-2.2599	de hipermetabolismo	-0.4501
-2.5947	de iliaca	-0.2861
-2.6788	de implantes	-0.1374
-2.7278	de imágenes	-0.1374
-2.7831	de isquiotibiales	-0.1374
-1.2170	de la	-0.5775
-1.9724	de las	-0.1374
-2.7831	de lengua	-0.1374
-2.4364	de lesión	-0.1374
-1.6567	de malignidad	-0.4939
-2.6347	de mama	-0.3496
-2.6788	de mamaria	-0.1374
-2.5581	de mayor	-0.1374
-2.5947	de menor	-0.1374
-2.0992	de metabolismo	-0.1374
-2.5947	de metástasis	-0.4745
-2.7831	de miositis	-0.1374
-2.7831	de morfología	-0.1374
-2.3371	de muslos	-0.8724
-2.5243	de múltiples	-0.1374
-2.6788	de neoplasia	-0.1374
-2.3587	de nueva	-0.1279
-2.5581	de nódulo	-0.1374
-2.7278	de otro	-0.1374
-2.2968	de pared	-0.1374
-2.3371	de partes	-0.1279
-2.6788	de pelvis	-0.1279
-2.6788	de pequeño	-0.1374
-2.7278	de polimialgia	-0.1374
-2.0105	de predominio	-0.2861
-1.9911	de probable	-0.8724
-2.3165	de recto	-0.1374
-1.4759	de referencia	-0.3727
-2.7831	de reservorio	-0.1374
-2.7831	de revisión	-0.1374
-2.7831	de segmentectomía	-0.1374
-2.6788	de seno	-0.1374
-2.7831	de separación	-0.1374
-2.7831	de sigma	-0.1374
-2.7831	de significación	-0.1374
-1.5432	de tamaño	-0.7313
-2.7831	de tibia	-0.1374
-2.7831	de trocánter	-0.1374
-2.6347	de un	-0.1374
-2.5581	de una	-0.8724
-2.7831	de vista	-0.1374
-2.7831	de vértebra	-0.1374
-2.7831	de útero	-0.1374
-0.5577	dedos de	-0.1374
-0.4196	degenerativa .	-0.3496
-1.6536	del 1	-0.1374
-1.7995	del PET	-0.1374
-1.8149	del ano	-0.1374
-1.8071	del depósito	-0.1374
-1.7365	del estudio	-0.1374
-1.7565	del leve	-0.1279
-0.9771	del metabolismo	-0.5390
-1.7995	del músculo	-0.1279
-1.8149	del ojo	-0.1374
-1.8149	del radio	-1.1029
-1.8149	del radiotrazador	-0.1374
-1.7995	del seno	-0.1374
-1.8149	del sexto	-0.1374
-1.7775	del tamaño	-0.1374
-0.8052	densidad de	-0.1374
-0.9039	densidad del	-0.1374
-0.5577	dentro de	-0.8724
-0.9186	depósito cálcico	-0.1374
-0.9186	depósito igg	-0.1374
-0.2694	depósitos patológicos	-1.0186
-0.6425	derecha (	-0.4621
-0.7557	derecha ,	-0.1374
-1.1914	derecha .	-0.1279
-1.7661	derecha del	-0.1279
-1.4862	derecha en	-0.1374
-1.8196	derecha hipermetabólica	-0.1374
-1.8371	derecha igualmente	-0.1374
-1.8028	derecha levemente	-0.1374
-1.7512	derecha que	-0.1374
-1.1076	derecho (	-0.1279
-1.5272	derecho )	-0.1374
-0.7899	derecho ,	-0.1326
-1.5784	derecho :	-0.1374
-1.1813	derecho con	-0.1374
-1.2922	derecho de	-0.1374
-1.3599	derecho en	-0.1374
-1.6270	derecho se	-0.1374
-0.9404	dermatomiositis .	-0.1374
-1.0831	dermatomiositis conocida	-0.1374
-1.0677	dermatomiositis que	-0.1374
-0.8513	derrame pericárdico	-0.1279
-0.4908	derrame pleural	-0.6322
-0.2694	descartar malignidad	-0.7175
-0.5992	descendente y	-0.1374
-0.4264	descrita en	-0.1374
-0.4264	descritas en	-0.1279
-1.2186	desde C3	-0.1279
-1.2101	desde cráneo	-0.1374
-1.1937	desde el	-0.1374
-1.2186	desde vértex	-0.8267
-0.6181	desplaza anteriormente	-0.1374
-0.6181	desplazado lateralmente	-0.1279
-1.2878	destaca el	-0.1374
-0.8366	destaca por	-0.1374
-0.8478	destaca una	-0.1374
-0.6080	destacamos por	-0.1374
-0.6054	destacan :	-0.1374
-0.6170	detectar depósitos	-0.6506
-0.8052	diagnosticada de	-0.1374
-0.8298	diagnosticada en	-0.1374
-0.5577	diagnosticado de	-0.1374
-0.6181	diagnóstico diferencial	-0.5714
-0.6133	dicha lesión	-0.1374
-0.6003	diciembre -	-0.1374
-0.6176	diferencial entre	-0.1298
-0.6176	diferenciar entre	-0.1279
-0.5714	difusa en	-0.1374
-0.6122	difuso aumento	-0.1279
-0.4179	dilatación de	-0.1279
-0.5714	discretamente en	-0.1374
-0.6165	discreto derrame	-0.1374
-0.5605	disestesias .	-0.1374
-0.6107	disminución del	-0.1374
-0.6080	disminuida por	-0.1374
-0.5577	dispositivo de	-0.1374
-0.6181	dispuestas formando	-0.1374
-0.1850	distribución fisiológica	-1.1277
-0.6054	distribuyen :	-0.1374
-0.8052	diáfisis de	-0.1374
-0.9175	diáfisis femoral	-0.1374
-0.6181	diámetro máximo	-0.1311
-0.8836	dl -	-0.1279
-0.8102	dl .	-0.8724
-0.6181	doble anexectomía	-0.1374
-0.6181	dolor neuropático	-0.1374
-1.2917	dos adenopatías	-0.1374
-0.4902	dos lesiones	-0.1374
-1.3055	dos nódulos	-0.1374
-0.9186	dosis bajas	-0.1374
-0.9154	dosis i.v.	-0.8724
-0.6181	ductal infiltrarte	-0.1374
-1.2128	e hiliares	-0.1374
-0.7509	e hipermetabólicas	-0.1279
-1.2187	e infradiafragmática	-0.1374
-0.9186	ecografía ginecológica	-0.1374
-0.9165	ecografía posterior	-0.1374
-0.5605	ecográficamente .	-0.1279
-0.6176	edema asociado	-0.1374
-0.5605	eje .	-0.1279
-1.7151	el 2	-0.1374
-1.7596	el 3	-0.1374
-1.8018	el TC	-0.1374
-1.0467	el diagnóstico	-0.5714
-1.3744	el estudio	-0.2520
-1.8568	el lean	-0.8267
-1.4030	el localizado	-0.1279
-1.7464	el metabolismo	-0.1374
-1.8245	el nódulo	-0.1374
-1.8568	el parénquima	-0.7755
-1.8653	el proceso	-0.1279
-1.8653	el punto	-0.1374
-1.8485	el resto	-0.1374
-1.8485	el tercio	-0.1374
-0.6181	elevación cea	-0.1374
-0.6107	elevador del	-0.1279
-1.0926	ellas compatibles	-0.1374
-1.0942	ellas dispuestas	-0.1374
-0.9671	ellas en	-0.1279
-0.8052	ello de	-0.1374
-0.8298	ello en	-0.3496
-0.6034	ellos con	-0.1374
-2.3552	en CIE	-0.2861
-2.7305	en L3	-0.1374
-1.8000	en LID	-0.1326
-2.7824	en LSD	-0.1374
-2.7824	en LSI	-0.1374
-2.2974	en RM	-0.1374
-1.9379	en TC	-0.1374
-1.7831	en ambas	-0.1374
-2.3159	en ambos	-0.3496
-2.7824	en articulación	-0.1374
-2.7824	en asas	-0.4745
-2.7824	en axila	-0.1374
-2.3159	en bazo	-0.1374
-2.7824	en cintura	-0.1374
-2.7824	en colonoscopia	-0.1374
-2.7824	en complejo	-0.1279
-2.7824	en consideración	-0.9138
-2.7824	en cresta	-0.1374
-2.3552	en cuadrante	-0.1279
-2.7824	en cuadrantes	-0.1374
-2.3552	en cuenta	-0.1311
-2.6842	en cuerpo	-0.1374
-2.6842	en cúpula	-0.1374
-2.7305	en diáfisis	-0.1374
-2.3552	en ecografía	-0.1374
-2.7824	en eje	-0.1279
-1.5180	en el	-0.7254
-2.7824	en espacio	-0.1374
-2.7305	en estructura	-0.1279
-2.3159	en estructuras	-0.3496
-1.7411	en estudio	-0.4621
-2.7305	en estudios	-0.1374
-2.0061	en fosa	-0.1311
-2.7824	en fundus	-0.1374
-2.2974	en glándula	-0.1311
-2.7305	en grandes	-0.1374
-2.7824	en hemitórax	-0.1374
-2.7824	en honduras	-0.1374
-2.2797	en iliaca	-0.3496
-2.7305	en inserción	-0.1374
-2.3552	en julio	-0.1279
-1.5062	en la	-0.2937
-2.0061	en lado	-0.1311
-2.3552	en localización	-0.1374
-2.7305	en línea	-0.1374
-2.3552	en língula	-0.1279
-1.8000	en lóbulo	-0.2267
-2.7305	en lóbulos	-0.1374
-1.9793	en mama	-0.1311
-2.6842	en mamaria	-0.1374
-2.7305	en marzo	-0.1374
-2.3351	en mediastino	-0.1311
-2.7824	en mesorrecto	-0.1374
-2.7305	en mujer	-0.1374
-2.3351	en musculatura	-0.1374
-2.3159	en músculo	-0.1311
-1.7831	en nivel	-0.1342
-2.3552	en octubre	-0.1374
-2.7824	en paciente	-0.7175
-1.7831	en pared	-0.1326
-2.3351	en parénquima	-0.1279
-2.3159	en pelvis	-0.1374
-2.3552	en pleura	-0.1279
-2.3159	en probable	-0.8267
-2.7824	en proximidad	-0.1374
-2.7824	en próximos	-0.1374
-2.0061	en pulmón	-0.1311
-2.3552	en pulpejos	-0.1279
-1.9880	en recto	-0.1374
-1.3373	en relación	-1.0582
-2.6842	en resto	-0.1374
-2.3552	en segmento	-0.1326
-2.6842	en seno	-0.1374
-2.7824	en septiembre	-0.1374
-2.3159	en su	-0.1374
-2.0061	en tejido	-0.1374
-2.6842	en tercio	-0.1374
-1.8000	en territorio	-0.5714
-2.6842	en todas	-0.1374
-2.3159	en tratamiento	-0.1279
-2.7824	en tronco	-0.1374
-2.7305	en troncos	-0.1374
-2.7824	en urgencias	-0.1374
-1.6567	en vertiente	-0.2267
-2.7305	en órbita	-0.1374
-0.8152	encefálicos ,	-0.6506
-0.9165	encefálicos patológicos	-0.4745
-0.6181	endometrio endometrioide	-0.1374
-0.6181	endometrioide ia	-0.1374
-0.5577	endonasal de	-0.1374
-0.6181	endoscópica endonasal	-0.1374
-1.0514	enfermedad con	-0.1374
-0.9337	enfermedad de	-0.1374
-1.0942	enfermedad granulomatosa	-0.1374
-0.9175	enfisema centrolobulillar	-0.1374
-0.9186	enfisema paraseptal	-0.1374
-1.3152	engrosamiento circunferencial	-0.1374
-0.8518	engrosamiento cutáneo	-0.1279
-0.8510	engrosamiento nodular	-0.1279
-1.2122	entre cambios	-0.1279
-1.2122	entre etiología	-0.1279
-1.2143	entre implantes	-0.1374
-1.1997	entre lesión	-0.1279
-0.5714	epidural en	-0.1374
-0.9186	es hiperdensa	-0.1374
-0.9175	es sospechosa	-0.1374
-0.6101	escalénica izquierda	-0.1374
-0.5992	escapular y	-0.1374
-0.6181	esclerosis sistémica	-0.1374
-0.5633	esfenoidal ,	-0.1374
-0.6181	espacio paracólico	-0.1374
-0.6176	espinosamente C6	-0.1374
-0.5577	esplenosis de	-0.1374
-0.5605	esplénica .	-0.1374
-0.6091	esplénicas no	-0.1374
-0.5714	esplénico en	-0.1374
-1.2326	esquelético -	-0.1374
-1.2552	esquelético :	-0.2307
-1.3070	esquelético distribución	-0.3496
-1.2941	esquelético leve	-0.1374
-1.2282	esquelético y	-0.1374
-0.9091	esta lesión	-0.1374
-0.9186	esta técnica	-0.1374
-0.6176	estaba presente	-0.1374
-0.6117	establecer el	-0.1374
-0.6181	estaciones ganglionares	-0.1374
-0.6181	estadificación propuesta	-0.1374
-0.6181	estar disminuida	-0.1374
-0.6003	esterno -	-0.1374
-0.6176	esternotomía media	-0.1374
-0.6181	estimulación epidural	-0.1374
-0.4525	estos hallazgos	-0.1279
-0.4540	estructura ósea	-0.3496
-1.0943	estructuras faringe	-0.8724
-0.6298	estructuras óseas	-0.2861
-1.4010	estudio .	-0.1279
-1.7329	estudio :	-0.1374
-1.8740	estudio PET	-0.1374
-1.8740	estudio PET-CT	-0.1279
-1.4084	estudio TC	-0.3496
-1.8740	estudio basal	-0.1374
-0.9459	estudio de	-0.1374
-1.0667	estudio previo	-0.3981
-1.8895	estudio realizado	-0.1374
-1.3956	estudio sin	-0.1374
-1.0703	estudio tardío	-0.3830
-0.8052	estudios de	-0.1374
-0.9175	estudios previos	-0.1374
-1.2186	está aumentado	-0.1374
-1.2186	está condicionada	-0.1374
-1.2186	está desplazado	-0.1279
-1.2186	está relacionado	-0.1279
-1.1523	etiología funcional	-0.2861
-0.7904	etiología inflamatoria	-0.2267
-1.6147	etiología mecánico	-0.1279
-1.6147	etiología traumática	-0.1374
-0.7909	etiología tumoral	-0.5714
-0.6154	evidencia metabólica	-0.1374
-0.5577	evolución de	-0.1374
-0.5714	expresan en	-0.8724
-0.5605	extensión .	-0.1374
-0.6165	extensos focos	-0.1279
-0.9028	externa /	-0.1279
-0.9049	externa derecha	-0.1374
-0.6176	externas descritas	-0.1374
-0.6170	extiende hasta	-0.1374
-0.8052	extraconal de	-0.1374
-0.9186	extraconal hipodensa	-0.1279
-0.6003	faringe -	-0.8724
-0.9867	femoral (	-0.1374
-0.9472	femoral ,	-0.1374
-1.0707	femoral izquierda	-0.1374
-0.6049	fin 1	-0.1374
-0.5714	finalizada en	-0.1374
-0.6107	fisiológica del	-0.9393
-0.6107	focal del	-0.1374
-0.6181	focales esplénicas	-0.1374
-1.2499	foco con	-0.1374
-1.0846	foco de	-0.1374
-1.3027	foco hipermetabólico	-0.1374
-0.8457	foco levemente	-0.1311
-0.1742	focos de	-0.8268
-0.6165	formando un	-0.1374
-0.9143	fosa iliaca	-0.1374
-0.9186	fosa nasal	-0.1374
-0.5633	fractura ,	-0.1374
-0.9101	frontal derecho	-0.1374
-0.9028	frontal izquierdo	-0.1374
-0.5605	fulguración .	-0.1374
-0.8152	funcional ,	-0.1374
-0.8102	funcional .	-0.3496
-0.6054	funcionales :	-0.1279
-0.5992	fundus y	-0.1374
-0.5714	fármaco en	-0.3710
-0.6107	g 3	-0.1374
-0.6144	ganglio levemente	-0.1374
-0.6170	ganglionar supera	-0.1374
-0.5792	ganglionares (	-0.1374
-1.3936	ganglios centinelas	-0.1374
-1.3904	ganglios cervicales	-0.1374
-1.3841	ganglios hiliares	-0.1374
-1.3904	ganglios hilo	-0.1374
-1.3872	ganglios laterocervicales	-0.1374
-1.3936	ganglios precavos	-0.1374
-0.5987	gastritis )	-0.1374
-0.5792	ginecológica (	-0.1374
-0.7390	glucemia :	-0.2827
-1.2148	glucemia basal	-0.1279
-1.2167	glucemia previa	-0.1374
-0.6049	glucemia: 1	-0.1374
-0.4914	glándula suprarrenal	-0.2861
-0.8519	glándula tiroides	-0.6322
-0.4537	glándulas suprarrenales	-0.1326
-0.6112	glútea derecha	-0.1374
-0.6154	glúteo mayor	-0.1374
-0.9059	grado 0	-0.1374
-0.8926	grado 1	-0.1374
-0.4543	grandes vasos	-0.1279
-0.6176	granulomas calcificados	-0.1374
-0.6181	granulomatosa crónica	-0.1374
-0.6181	grapas quirúrgicas	-0.1374
-0.6181	grasa parda	-0.1374
-0.5577	graso de	-0.1374
-0.5633	gástrica ,	-0.1374
-0.5633	gástrico ,	-0.1374
-0.6181	haber iniciado	-0.1374
-0.4226	hallazgos :	-0.6506
-0.9073	hallazgos de	-0.1279
-1.4220	hallazgos no	-0.1374
-1.0800	hasta SULmax	-0.3830
-1.0753	hasta el	-0.1374
-1.0692	hasta la	-0.1374
-1.2117	hay mayor	-0.1374
-0.3907	hay que	-0.7979
-0.6101	hemitórax izquierdo	-0.1374
-0.9162	hepática (	-0.1311
-0.8797	hepática .	-0.3496
-1.3852	hepática :	-0.1279
-1.1698	hepática de	-0.5714
-1.3520	hepática y	-0.1374
-1.0239	hepáticas .	-0.1374
-1.0158	hepáticas de	-0.1374
-1.2059	hepáticas hipermetabólicas	-0.1374
-1.1916	hepáticas sin	-0.1374
-1.0806	hepático (	-0.1374
-1.0322	hepático ,	-0.1924
-1.0565	hepático en	-0.1374
-1.1478	hepático y	-0.1374
-0.6070	her 2	-0.1374
-0.5577	hernia de	-0.1374
-0.5633	heterotópica ,	-0.1279
-0.5633	hiato ,	-0.1374
-0.6138	hidrostático derecho	-0.1374
-1.1510	hiliares )	-0.1374
-0.7523	hiliares bilaterales	-0.1279
-1.0278	hiliares de	-0.7755
-0.8836	hilo -	-0.1374
-0.9028	hilo izquierdo	-0.1374
-1.2101	hipercaptación cráneo	-0.6506
-1.0565	hipercaptación en	-0.1374
-1.2143	hipercaptación patológicos	-0.3830
-1.2122	hipercaptación sugestivos	-0.3496
-0.5633	hiperdensa ,	-0.1374
-1.3039	hipermetabolismo ,	-0.1374
-1.2919	hipermetabolismo .	-0.7755
-1.6062	hipermetabolismo bilateral	-0.1374
-0.5485	hipermetabolismo en	-0.1374
-1.6145	hipermetabolismo muscular	-0.1374
-1.5489	hipermetabolismo que	-0.1374
-1.6145	hipermetabolismo sobre	-0.1374
-1.2619	hipermetabólica (	-0.1374
-0.3440	hipermetabólica en	-0.1800
-1.3947	hipermetabólica retroperitoneal	-0.1374
-0.6829	hipermetabólicas ,	-0.1374
-1.4788	hipermetabólicas :	-0.1374
-1.5646	hipermetabólicas descritas	-0.1374
-1.2942	hipermetabólicas en	-0.1374
-1.5646	hipermetabólicas izquierdas	-0.1374
-1.5687	hipermetabólicas paravertebrales	-0.1374
-1.5605	hipermetabólicas tumorales	-0.1374
-0.9846	hipermetabólico (	-0.1279
-1.2780	hipermetabólico ,	-0.1279
-0.4614	hipermetabólico en	-0.1342
-1.5188	hipermetabólico esplénico	-0.1374
-1.0158	hipermetabólicos de	-0.1374
-1.2186	hipermetabólicos subcutáneos	-0.1374
-1.2122	hipermetabólicos sugestivos	-0.1374
-1.2186	hipermetabólicos tanto	-0.1374
-0.6170	hipodensa adyacente	-0.1374
-0.9154	hipodensas e	-0.1374
-0.9165	hipodensas hepáticas	-0.1374
-0.6181	hipometabolismo cortico	-0.1374
-0.9472	histerectomía ,	-0.1374
-1.0942	histerectomía doble	-0.1374
-0.9671	histerectomía en	-0.1374
-0.6181	histología mucinosa	-0.1279
-0.5792	honduras (	-0.1374
-0.8440	horas (	-0.1374
-0.8052	horas de	-0.1374
-0.6181	hueso iliaco	-0.1374
-0.5792	hígado (	-0.1374
-0.7580	i.v. de	-0.2736
-1.3101	i.v. glucemia	-0.1279
-1.3003	i.v. hallazgos	-0.1374
-1.3151	i.v. prednisona	-0.1374
-0.5633	ia ,	-0.1374
-1.3018	identifica afectación	-0.1374
-1.2866	identifica aumento	-0.1374
-1.3070	identifica un	-0.1374
-1.3018	identifica una	-0.1374
-1.3096	identifica zona	-0.1374
-1.5778	identifican 2	-0.1374
-1.6230	identifican adenopatías	-0.4652
-1.6559	identifican al	-0.1374
-1.6794	identifican depósitos	-0.1374
-1.6675	identifican dos	-0.1374
-1.2243	identifican focos	-1.0766
-1.6559	identifican múltiples	-0.1374
-1.6617	identifican nódulos	-0.6506
-1.6854	identifican otras	-0.1374
-1.6794	identifican otros	-0.1279
-1.6916	identifican varias	-0.1279
-0.6165	ig i.v.	-0.1374
-0.6122	igg 4	-0.1374
-0.9175	igualmente compatible	-0.1374
-0.9154	igualmente inespecíficas	-0.1374
-0.6144	iia levemente	-0.1374
-1.2493	iliaca (	-0.1374
-1.4602	iliaca común	-0.1311
-1.4161	iliaca derecha	-0.1374
-0.9975	iliaca externa	-0.1279
-1.4531	iliaca interna	-0.1374
-1.4096	iliaca izquierda	-0.1374
-0.6181	iliacas externas	-0.1374
-0.6138	iliaco derecho	-0.1374
-0.6181	imagen tardía	-0.1374
-0.6170	implante tumoral	-0.1279
-0.9404	implantes .	-0.1374
-1.0926	implantes hipermetabólicos	-0.1374
-1.0910	implantes tumorales	-0.1374
-1.0910	imágenes cuerpo	-0.1374
-1.0894	imágenes desde	-0.1374
-1.0942	imágenes tardías	-0.1374
-0.6181	incluyendo miembros	-0.1374
-0.2676	incremento del	-0.4745
-0.9867	inespecífica (	-0.1374
-0.9404	inespecífica .	-0.1374
-0.9337	inespecífica de	-0.1374
-0.6883	inespecíficas .	-0.1279
-0.7457	inespecíficas /	-0.1279
-0.5605	inespecífico .	-0.1374
-0.5605	inespecíficos .	-0.1279
-0.8152	infecciosa ,	-0.1374
-0.8102	infecciosa .	-0.1374
-1.1778	inferior a	-0.1374
-1.0158	inferior de	-0.1374
-1.2164	inferior interno	-0.1374
-1.1876	inferior izquierdo	-0.1374
-0.8807	inferiores )	-0.1374
-0.9165	inferiores pulmonares	-0.1279
-0.6149	infiltra al	-0.1374
-0.9122	infiltración al	-0.1374
-0.8987	infiltración por	-0.1374
-0.6165	infiltrar pared	-0.1374
-0.6181	infiltrarte re	-0.1374
-1.0124	inflamatoria (	-0.1374
-1.4413	inflamatoria )	-0.1374
-0.6820	inflamatoria .	-0.8724
-1.5126	inflamatoria /	-0.1374
-1.4987	inflamatoria por	-0.1311
-1.5689	inflamatoria postquirúrgica	-0.1279
-0.6034	inflamatorio con	-0.1374
-0.9186	inflamatorios post	-0.1374
-0.9175	inflamatorios postquirúrgicos	-0.1374
-0.5987	informes )	-0.1374
-0.5633	infraclaviculares ,	-0.1374
-0.8807	infradiafragmática )	-0.1374
-0.8152	infradiafragmática ,	-0.1374
-1.0926	inguinal ipsilateral	-0.1374
-1.0910	inguinal medial	-0.1374
-1.0942	inguinal profunda	-0.1374
-0.6170	iniciado tratamiento	-0.1374
-0.8052	inserción de	-0.1374
-0.8298	inserción en	-0.1374
-0.6181	intensa activación	-0.1374
-0.4438	interaorto -	-0.3496
-0.6176	interaortocava inespecífica	-0.1374
-0.5714	interasas en	-0.1374
-1.0355	interna .	-0.1374
-1.1937	interna derecha	-0.1374
-0.7449	interna izquierda	-0.1374
-1.0322	interno ,	-0.1374
-1.0239	interno .	-0.1374
-1.1896	interno del	-0.1374
-1.2186	interno ocular	-0.1374
-0.8052	intersticial de	-0.1374
-0.9165	intersticial subpleural	-0.1279
-1.0753	intervenida el	-0.1374
-0.9671	intervenida en	-0.1374
-1.0926	intervenida mediante	-0.1374
-0.5605	intraabdominal .	-0.8724
-0.9165	ipsilateral medial	-0.1374
-0.9143	ipsilateral supraclavicular	-0.1374
-0.5792	isquiotibiales (	-0.1374
-0.5992	isquiática y	-0.1374
-0.6181	istmo tiroideo	-0.1374
-0.6316	izquierda (	-0.4621
-0.7169	izquierda ,	-0.2026
-1.2642	izquierda .	-0.1279
-1.7771	izquierda con	-0.1374
-1.8892	izquierda conocida	-0.1374
-1.2556	izquierda de	-0.1336
-1.8892	izquierda levemente	-0.1374
-1.8541	izquierda se	-0.1374
-1.4441	izquierda sin	-0.1374
-0.8152	izquierdas ,	-0.1374
-0.9154	izquierdas desde	-0.1279
-0.6211	izquierdo (	-0.5714
-1.6628	izquierdo )	-0.1374
-0.7385	izquierdo ,	-0.1326
-0.9166	izquierdo .	-0.3496
-1.7112	izquierdo :	-0.1374
-1.7746	izquierdo SULmax	-0.1374
-1.6663	izquierdo y	-0.1374
-0.6003	julio -	-0.1279
-0.6034	junto con	-0.1374
-1.7205	la 18F-FDG	-0.6991
-2.1797	la FE	-0.1374
-1.6666	la actividad	-0.1374
-2.1797	la actualidad	-0.1326
-1.6723	la adenopatía	-0.1311
-1.7269	la administración	-0.6272
-2.0965	la afectación	-0.1374
-2.1445	la ausencia	-0.1374
-2.1445	la captación	-0.1279
-2.1617	la cirugía	-0.1374
-2.1445	la cúpula	-0.1279
-1.3938	la de	-0.1374
-1.7205	la dermatomiositis	-0.1311
-2.1445	la enfermedad	-0.1374
-2.1797	la grasa	-0.1374
-2.1797	la histología	-0.1279
-2.1797	la imagen	-0.1279
-1.6723	la lesión	-0.1374
-1.7269	la limitación	-0.9516
-2.1797	la más	-0.1374
-2.1445	la neoplasia	-0.1374
-2.1797	la normalidad	-0.8724
-2.1445	la otra	-0.1374
-2.1617	la piel	-0.1374
-1.9447	la que	-0.1374
-2.1617	la región	-0.1374
-2.1797	la sensibilidad	-0.1374
-1.7269	la valoración	-0.7979
-2.1617	la vena	-0.1279
-2.1617	la órbita	-0.1374
-0.9101	lado derecho	-0.1374
-0.9028	lado izquierdo	-0.1279
-0.5714	laminar en	-0.1374
-0.6181	laríngeas dentro	-0.8724
-1.4128	las 3	-0.1279
-0.9830	las adenopatías	-0.1374
-1.4602	las estaciones	-0.1374
-1.4531	las estructuras	-0.1374
-1.4602	las mismas	-0.1374
-1.4566	las otras	-0.1374
-0.6091	laterales no	-0.1374
-0.6080	lateralmente por	-0.1279
-0.5791	laterocervicales ,	-0.1374
-1.0886	laterocervicales bilaterales	-0.1374
-0.4543	lean body	-0.8724
-0.5633	lengua ,	-0.1374
-0.6181	lenta mejoría	-0.1374
-0.5605	lenticular .	-0.1374
-1.4602	lesiones cerebrales	-0.1374
-1.4602	lesiones conocidas	-0.1374
-1.4602	lesiones focales	-0.1374
-1.4531	lesiones hepáticas	-0.1374
-0.9975	lesiones hipodensas	-0.1374
-1.4566	lesiones subcentimétricas	-0.1374
-1.5099	lesión (	-0.1374
-0.9684	lesión ,	-0.1374
-1.4516	lesión calcificada	-0.1279
-1.4310	lesión conocida	-0.1374
-1.3773	lesión de	-0.1374
-1.2373	lesión en	-0.1374
-1.8939	lesión está	-0.1374
-1.4516	lesión extraconal	-0.1311
-1.0872	lesión hipermetabólica	-0.6506
-1.8856	lesión inflamatoria	-0.1279
-1.7840	lesión no	-0.1374
-1.9023	lesión sólida	-0.1374
-1.6307	leve -	-0.1374
-1.7180	leve actividad	-0.1279
-0.9309	leve aumento	-0.3830
-1.2952	leve captación	-0.1374
-0.4783	leve metabolismo	-0.2668
-1.6241	leve y	-0.1279
-1.6152	levemente captante	-0.1374
-0.5828	levemente metabólicas	-0.1374
-0.7907	levemente metabólico	-0.3830
-1.1525	levemente metabólicos	-0.1311
-1.0514	libre con	-0.1374
-1.0942	libre interasas	-0.1374
-1.0942	libre intraabdominal	-0.8724
-0.5577	limitación de	-0.9516
-0.6181	linfadenectomía pélvica	-0.1374
-0.6176	liquido libre	-0.1374
-0.9186	lo cual	-0.1279
-0.9008	lo que	-0.1374
-0.5605	local .	-0.1374
-0.9186	localización espinosamente	-0.1374
-0.9186	localización occipital	-0.1374
-0.4264	localizado en	-0.1374
-1.3756	los 1	-0.1374
-1.4175	los 6	-0.1317
-1.4175	los 7	-0.1374
-1.4209	los 9	-0.1374
-1.4600	los extensos	-0.1279
-1.4600	los siguientes	-0.1279
-1.4563	los valores	-0.8724
-0.6138	lumbar derecho	-0.1374
-0.8052	línea de	-0.1374
-0.9175	línea media	-0.1374
-0.5792	língula (	-0.1374
-0.6298	líquido libre	-0.7254
-1.0900	líquido metabólico	-0.1374
-1.0942	lóbulo hidrostático	-0.1279
-1.0894	lóbulo inferior	-0.1374
-1.0942	lóbulo medio	-0.1374
-1.0929	lóbulos inferiores	-0.1279
-0.6298	lóbulos superiores	-0.1279
-0.6049	m 1	-0.1374
-0.0909	mCi de	-0.9516
-1.2326	malignidad (	-0.1374
-0.5282	malignidad .	-1.0766
-1.3455	malignidad a	-0.1374
-1.3478	malignidad por	-0.1374
-0.4877	mama derecha	-0.2267
-0.8423	mama izquierda	-0.1374
-0.9596	mamaria ,	-0.1374
-0.6293	mamaria interna	-0.1374
-0.5605	mamario .	-0.1374
-0.8440	manos (	-0.1374
-0.8152	manos ,	-0.1374
-0.8836	marzo -	-0.1374
-0.8967	marzo 2	-0.1374
-0.5792	masa (	-0.8724
-0.6149	masas hipermetabólicas	-0.1374
-0.6101	maxilar izquierdo	-0.1374
-1.3907	mayor densidad	-0.1374
-0.9224	mayor derecho	-0.1279
-1.3476	mayor metabolismo	-0.1374
-1.3788	mayor tamaño	-0.1374
-1.3937	mayor tiene	-0.1374
-0.6003	mecánico -	-0.1279
-0.4214	media ,	-0.1374
-0.2668	medial a	-0.1311
-0.9175	mediante cirugía	-0.1374
-0.9186	mediante miles	-0.1374
-0.9867	mediastino (	-0.1374
-1.0573	mediastino :	-0.1279
-1.0894	mediastino destaca	-0.1374
-0.9867	mediastínica (	-0.1279
-1.0707	mediastínica izquierda	-0.1279
-1.0399	mediastínica y	-0.1374
-1.1778	mediastínicas a	-0.1374
-1.0158	mediastínicas de	-0.1374
-1.2122	mediastínicas e	-0.1374
-1.2039	mediastínicas ni	-0.7755
-0.5577	mediastínico de	-0.1374
-0.6181	mediastínicos parcialmente	-0.1374
-0.9867	medio (	-0.1374
-0.9472	medio ,	-0.1374
-0.9404	medio .	-0.1374
-0.5633	mejoría ,	-0.1374
-1.1371	menor .	-0.1374
-1.3368	menor a	-0.1374
-0.9204	menor actividad	-0.1311
-1.3476	menor metabolismo	-0.1374
-1.3788	menor tamaño	-0.1374
-0.6170	menos otros	-0.1374
-0.5633	mesentéricos ,	-0.1374
-0.5792	mesorrecto (	-0.1374
-0.8769	metabolismo (	-0.2976
-1.8016	metabolismo )	-0.1374
-0.9686	metabolismo ,	-0.2160
-1.3264	metabolismo .	-0.4745
-1.5539	metabolismo :	-0.1374
-2.0870	metabolismo además	-0.1374
-2.0983	metabolismo alrededor	-0.1374
-2.0983	metabolismo anómalo	-0.8881
-1.6370	metabolismo asociado	-0.1311
-2.0651	metabolismo destaca	-0.1374
-1.5953	metabolismo el	-0.1374
-0.9834	metabolismo en	-0.1352
-2.0983	metabolismo normal	-0.4745
-1.5776	metabolismo que	-0.1374
-2.0870	metabolismo significativo	-0.1374
-2.0870	metabolismo son	-0.1374
-1.2828	metabólica (	-0.1374
-1.1985	metabólica .	-0.1374
-1.4158	metabólica con	-0.1374
-0.9111	metabólica de	-0.1374
-1.2462	metabólica en	-0.1374
-1.4530	metabólica que	-0.1374
-1.4674	metabólica se	-0.1374
-0.4484	metabólicamente por	-0.1279
-1.0806	metabólicas (	-0.1374
-1.0322	metabólicas ,	-0.1374
-1.0239	metabólicas .	-0.1374
-1.2186	metabólicas iliacas	-0.1374
-1.0936	metabólico .	-0.1374
-0.7787	metabólico en	-0.1298
-1.3126	metabólico estos	-0.1374
-1.3151	metabólico paraaórtico	-0.1374
-0.8440	metabólicos (	-0.1374
-0.8152	metabólicos ,	-0.1279
-0.5633	metafísicos ,	-0.1374
-1.0800	metastásica adenopatía	-0.1374
-1.0862	metastásica hepática	-0.1374
-1.0942	metastásica múltiple	-0.1374
-0.8797	metástasis .	-0.5714
-1.4435	metástasis hepática	-0.1279
-0.9952	metástasis hepáticas	-0.1374
-1.4569	metástasis tratada	-0.1374
-1.4569	metástasis óseas	-0.1374
-1.3739	mg .	-0.1374
-0.1530	mg /	-0.9516
-0.6176	miembros inferiores	-0.1374
-0.5605	miles .	-0.1374
-0.5714	milimétricos en	-0.1374
-1.3318	minutos .	-0.1374
-0.2263	minutos de	-0.9138
-1.5197	minutos tras	-0.1374
-0.5605	miositis .	-0.1374
-0.5633	mismas ,	-0.1374
-0.5605	ml .	-0.1279
-0.3914	mm )	-0.3194
-1.2705	mm .	-0.1374
-0.9898	mm de	-0.3496
-1.8876	mm descrita	-0.1374
-1.0079	mm en	-0.1326
-1.8925	mm trxap	-0.1374
-0.8152	moderado ,	-0.1374
-0.9018	moderado metabolismo	-0.1374
-0.6181	monitorizar evolución	-0.1374
-0.6181	morfología lenticular	-0.1374
-0.5577	morfometabólica de	-0.1374
-0.6170	morfometabólicas pulmonares	-0.1374
-0.6170	mucinosa puede	-0.1279
-0.5577	mucinoso de	-0.1374
-0.9070	muestra aumento	-0.1374
-0.9101	muestra leve	-0.1374
-0.6176	muestran traducción	-0.1374
-0.4179	mujer de	-0.1374
-0.6165	muscular sugestivos	-0.1374
-0.5577	musculares de	-0.1374
-1.2187	musculatura cricoaritenoidea	-0.1374
-1.2187	musculatura escalénica	-0.1374
-0.7550	musculatura retrosomática	-0.1374
-0.6003	musculo -	-0.7175
-0.9101	muslo derecho	-0.1374
-0.9028	muslo izquierdo	-0.1374
-0.8440	muslos (	-0.1374
-0.8152	muslos ,	-0.6840
-0.6154	más metabólica	-0.1374
-0.8807	máximo )	-0.1374
-0.9049	máximo sin	-0.1374
-0.9154	mínimo derrame	-0.1374
-0.9165	mínimo líquido	-0.1374
-0.5792	múltiple (	-0.1374
-1.4728	múltiples adenopatías	-0.1374
-1.0526	múltiples implantes	-0.1279
-1.5023	múltiples lesiones	-0.1374
-1.5178	múltiples masas	-0.1374
-1.5023	múltiples metástasis	-0.1374
-1.0486	múltiples nódulos	-0.1374
-1.1514	músculo -	-0.5714
-1.2186	músculo cuadrado	-0.1374
-1.2186	músculo elevador	-0.1279
-1.2143	músculo recto	-0.1279
-0.6107	n 3	-0.1374
-0.6112	nasal derecha	-0.1374
-0.9113	neoplasia a	-0.1279
-1.3939	neoplasia aerostática	-0.1279
-1.1375	neoplasia de	-0.1374
-0.9308	neoplasia primaria	-0.1374
-0.6181	neuropático MSI	-0.1374
-0.6101	ng /	-0.1279
-1.4123	ni con	-1.0766
-1.5090	ni depósitos	-0.7175
-1.2386	ni en	-0.1374
-1.5049	ni hiliares	-0.7755
-1.5090	ni mediastínicas	-0.1374
-1.5132	ni pericárdico	-0.8724
-1.4434	ni por	-0.1374
-1.5132	ni troncos	-0.1374
-1.5145	nivel 4R	-0.1374
-0.6953	nivel I	-0.1374
-1.5181	nivel III	-0.1374
-1.5181	nivel VI	-0.1374
-1.2144	nivel de	-0.1374
-1.5181	nivel iia	-0.1374
-2.1472	no afectas	-0.1374
-2.1472	no amplificado	-0.1374
-2.1472	no aporta	-0.1374
-1.6714	no asocia	-0.1374
-1.6923	no asocian	-0.1279
-2.1472	no caracterizable	-0.1374
-1.6923	no caracterizables	-0.1374
-2.1036	no derrame	-0.7254
-2.1176	no está	-0.1279
-2.1176	no líquido	-0.8724
-2.1322	no muestra	-0.1374
-2.1472	no muestran	-0.1374
-2.1472	no parece	-0.1374
-1.3344	no permite	-0.3517
-1.6923	no permiten	-0.1374
-2.1472	no podemos	-0.1374
-1.9250	no por	-0.1374
-2.1036	no presenta	-0.1374
-2.1322	no presente	-0.1374
-0.9718	no se	-1.0362
-2.1472	no siendo	-0.1374
-2.1322	no significativos	-0.1374
-2.1472	no sugestiva	-0.1374
-2.1472	no sugestivas	-0.1279
-2.1472	no sugieren	-0.1374
-0.9472	nodular ,	-0.1279
-1.0831	nodular levemente	-0.1279
-1.0910	nodular pleural	-0.1279
-0.5714	normal en	-0.4745
-0.5605	normalidad .	-0.8724
-0.4196	normometabólica .	-0.9138
-0.6176	nueva aparición	-0.1279
-0.6928	nódulo hipermetabólico	-0.1311
-1.0499	nódulo pulmonar	-0.1311
-1.5085	nódulo subcutáneo	-0.1374
-1.0533	nódulo subpleural	-0.1374
-0.9964	nódulos hipermetabólicos	-0.1374
-1.4603	nódulos metafísicos	-0.1374
-1.4603	nódulos milimétricos	-0.1374
-0.9952	nódulos pulmonares	-0.5871
-1.4603	nódulos tiroideos	-0.1374
-0.6096	o metabolismo	-0.1374
-1.0753	objetivan adenopatías	-0.1374
-1.0910	objetivan ganglios	-0.1374
-1.0846	objetivan múltiples	-0.1374
-0.6122	observa aumento	-0.1374
-1.0723	observan 3	-0.1374
-1.0753	observan adenopatías	-0.1374
-1.0894	observan focos	-0.1279
-0.6122	obtiene estudio	-0.1374
-0.6176	obtienen imágenes	-0.1374
-0.5992	ocasional y	-0.1374
-0.5633	occipital ,	-0.1374
-0.8836	octubre -	-0.1374
-0.8967	octubre 2	-0.1374
-0.6101	ocular izquierdo	-0.1374
-0.5577	ocupación de	-0.1374
-0.6101	ojo izquierdo	-0.1374
-0.6176	omentectomía parcial	-0.1374
-0.6170	opacidad subpleural	-0.1374
-0.6181	opresión precordial	-0.1374
-0.6965	otra en	-0.1374
-1.2167	otra inguinal	-0.1374
-1.2012	otra lesión	-0.1374
-0.8967	otras 2	-0.1374
-0.9143	otras lesiones	-0.1374
-0.9186	otro centro	-0.1374
-0.8298	otro en	-0.1374
-1.0878	otros dos	-0.1374
-1.0846	otros hallazgos	-0.1374
-1.0862	otros nódulos	-0.1279
-0.5577	paciente de	-0.1293
-0.5633	palpitaciones ,	-0.1374
-1.0926	para biopsia	-0.1374
-1.0692	para la	-0.9516
-1.0942	para monitorizar	-0.1374
-0.5987	paraaórtica )	-0.1374
-0.6101	paraaórtico izquierdo	-0.1374
-0.6101	paracólico izquierdo	-0.1374
-0.5992	paraseptal y	-0.1374
-0.5605	paravertebral .	-0.1374
-0.6160	paravertebrales bilaterales	-0.1374
-0.9186	parcial her	-0.1374
-0.9186	parcial linfadenectomía	-0.1374
-0.6176	parcialmente calcificados	-0.1374
-0.5714	parda en	-0.1374
-0.6181	parece infiltrar	-0.1374
-0.9952	pared abdominal	-0.1374
-1.1698	pared de	-0.1374
-1.4603	pared gástrica	-0.1374
-0.9964	pared torácica	-0.1374
-1.4603	pared vascular	-0.1374
-0.4543	partes blandas	-0.1374
-0.6181	parámetros funcionales	-0.1279
-0.6298	parénquima hepático	-0.6840
-1.0871	parénquima pulmonar	-0.7755
-0.5633	parótidas ,	-0.1374
-0.6165	patología inflamatoria	-0.1374
-0.8102	patológica .	-0.1374
-0.9143	patológica hipermetabólica	-0.1374
-0.9122	patológicas hipermetabólicas	-0.1374
-0.9175	patológicas retroperitoneales	-0.1374
-1.0322	patológicos ,	-0.4745
-1.2186	patológicos craneoencefálicas	-0.1374
-1.2101	patológicos cráneo	-0.4745
-1.0158	patológicos de	-1.0186
-0.6154	pectoral mayor	-0.1374
-0.5633	pelviana ,	-0.1374
-1.0924	pelvis ,	-0.1374
-1.2552	pelvis :	-0.2976
-1.3070	pelvis distribución	-0.5714
-1.3044	pelvis menor	-0.1374
-1.3149	pelvis renal	-0.1279
-0.4179	pendiente de	-0.1279
-0.6117	pequeñas adenopatías	-0.1279
-1.0943	pequeño ganglio	-0.1374
-0.6278	pequeño tamaño	-0.1326
-0.4196	pericárdico .	-0.9516
-0.6170	perineal intervenida	-0.1374
-0.6101	peritoneal /	-0.1374
-1.0942	permite confirmar	-0.1374
-1.0910	permite descartar	-0.5714
-1.0942	permite diferenciar	-0.1279
-0.9165	permiten descartar	-0.1374
-0.9186	permiten establecer	-0.1374
-0.6091	pero no	-0.1374
-0.4534	persisten los	-0.1279
-0.5633	pertrocantéreas ,	-0.1374
-0.6107	pesar del	-0.1279
-0.8440	pezón (	-0.1374
-0.8817	pezón y	-0.1374
-0.8102	piel .	-0.1374
-0.9154	piel mama	-0.1374
-0.6181	placas pleurales	-0.1374
-0.6181	plano graso	-0.1374
-0.2679	plantea el	-0.3496
-0.6117	plantean el	-0.1374
-0.6170	pleura mediastínica	-0.1279
-1.0924	pleural ,	-0.1374
-1.3096	pleural bilateral	-0.1374
-1.0737	pleural de	-0.1374
-1.3018	pleural hipermetabólico	-0.1374
-1.2967	pleural ni	-0.8724
-0.6181	pleurales calcificadas	-0.1374
-0.5792	pmr (	-0.1374
-0.6070	pn 2	-0.1374
-0.6170	podemos descartar	-0.1374
-0.6165	poder valorar	-0.1374
-0.9186	polimialgia reumatica	-0.1374
-0.9186	polimialgia reumática	-0.1374
-1.5385	por RM	-0.1279
-1.9370	por TC	-0.1374
-1.9059	por el	-0.1279
-1.9884	por enfermedad	-0.1374
-1.9135	por estudio	-0.1311
-2.0070	por haber	-0.1374
-1.4984	por la	-0.1279
-1.9290	por lesión	-0.1279
-1.9976	por lo	-0.1374
-1.8768	por metabolismo	-0.1374
-2.0070	por pseudotumor	-0.1374
-2.0070	por ser	-0.1374
-0.7326	por su	-0.2128
-0.9757	por tamaño	-0.1326
-2.0070	por último	-0.1374
-0.5577	portadora de	-0.1374
-0.6003	post -	-0.1374
-0.9867	posterior (	-0.1374
-1.0942	posterior braquiterápia	-0.1374
-1.0723	posterior del	-0.1374
-0.6160	postquirúrgica vs	-0.1279
-1.0894	postquirúrgicos (	-0.1374
-0.6965	postquirúrgicos en	-0.1374
-1.2109	postquirúrgicos vs	-0.1374
-0.5633	precavos ,	-0.1374
-0.6181	precordial ocasional	-0.1374
-0.6122	prednisona 5	-0.1374
-0.8298	predominio en	-0.1311
-0.9028	predominio izquierdo	-0.1374
-1.1974	presenta aumento	-0.1374
-0.7496	presenta leve	-0.1279
-1.2148	presenta pequeño	-0.1374
-0.6170	presentan incremento	-0.1374
-0.6181	presentar baja	-0.1374
-0.8807	presente )	-0.1374
-0.8298	presente en	-0.1374
-0.5714	presentes en	-0.1374
-0.5792	prevascular (	-0.1374
-1.0924	previa ,	-0.1374
-1.2646	previa a	-0.1374
-1.2791	previa del	-0.1374
-1.2718	previa no	-0.1374
-1.3070	previa presenta	-0.1374
-0.6133	previamente SULmax	-0.4621
-0.6572	previo (	-0.1279
-0.9413	previo ,	-0.2307
-1.5113	previo PET	-0.1374
-1.4880	previo SULmax	-0.1374
-1.4082	previo y	-0.1374
-0.8152	previos ,	-0.1374
-0.8052	previos de	-0.1374
-0.8152	primaria ,	-0.1374
-0.9112	primaria conocida	-0.1374
-1.0894	probable etiología	-0.3097
-1.0910	probable foco	-0.1374
-1.0926	probable relación	-0.8267
-0.5577	proceso de	-0.1279
-0.6181	proctitis actínica	-0.1374
-0.9028	profunda izquierda	-0.1374
-0.8817	profunda y	-0.1374
-0.6181	progresión morfometabólica	-0.1374
-0.6054	propuesta :	-0.1374
-0.5577	proximal de	-0.1374
-0.6075	proximidad a	-0.1374
-0.6181	próximos controles	-0.1374
-0.6181	pseudotumor inflamatorio	-0.1374
-0.6107	pt 3	-0.1374
-1.0942	puede corresponder	-0.1374
-1.0942	puede estar	-0.1374
-1.0942	puede presentar	-0.1279
-1.2828	pulmonar (	-0.1374
-0.9235	pulmonar ,	-0.1374
-1.1985	pulmonar .	-0.7755
-1.2462	pulmonar en	-0.1374
-1.4976	pulmonar hipermetabólico	-0.1279
-1.5135	pulmonar intersticial	-0.1374
-1.3906	pulmonar y	-0.1374
-0.6865	pulmonares ,	-0.1374
-1.0355	pulmonares .	-0.1374
-1.2051	pulmonares ni	-0.7175
-0.9101	pulmón derecho	-0.1374
-0.9028	pulmón izquierdo	-0.1374
-0.5577	pulpejos de	-0.1374
-0.6176	punch piel	-0.1374
-0.5577	punto de	-0.1374
-0.8102	páncreas .	-0.9138
-0.8817	páncreas y	-0.1374
-0.6101	pélvica /	-0.1374
-0.8152	pélvicas ,	-0.1374
-0.8052	pélvicas de	-0.7175
-0.6181	pólipo sesil	-0.1374
-1.3137	que asocia	-0.1973
-1.6802	que aumenta	-0.1326
-2.1361	que comprime	-0.1374
-2.1361	que considerar	-0.1374
-2.1361	que consulta	-0.1374
-2.1361	que correlacionamos	-0.1374
-1.0067	que en	-0.1326
-2.1225	que es	-0.1374
-1.6707	que está	-0.1311
-2.1361	que infiltra	-0.1374
-2.1361	que junto	-0.1374
-1.6090	que la	-0.1311
-0.9570	que no	-0.2564
-2.1093	que plantea	-0.1374
-2.1361	que plantean	-0.1374
-2.1093	que puede	-0.1374
-2.1361	que queda	-0.1374
-2.1225	que recibió	-0.1374
-1.9857	que se	-0.1374
-2.1361	que sugiera	-0.1374
-2.1093	que también	-0.1374
-2.1361	que tener	-0.9516
-0.5714	queda en	-0.1374
-0.5992	quimioterápico y	-0.1374
-0.6176	quinto arco	-0.1374
-0.8152	quirúrgica ,	-0.1279
-0.8052	quirúrgica de	-0.1374
-0.6170	quirúrgicas plantea	-0.1374
-0.5605	quistes .	-0.1374
-0.6181	radio fármaco	-1.1029
-0.6176	radioterapia adyuvante	-0.1374
-0.5714	radiotrazador en	-0.1374
-0.6181	re remisión	-0.1374
-0.5605	reactiva .	-0.1374
-0.6122	realiza estudio	-0.1279
-0.6112	realizado sin	-0.1374
-0.2694	realizamos PET-CT	-0.6840
-0.9165	recibió tratamiento	-0.1374
-0.9186	recibió xelox	-0.1374
-0.9186	recidiva local	-0.1374
-0.9186	recidiva perineal	-0.1374
-0.5987	reciente )	-0.1374
-0.6165	recomienda valorar	-0.1374
-1.2007	recto (	-0.1374
-1.1378	recto ,	-0.1374
-1.1273	recto .	-0.1374
-1.3122	recto con	-0.1374
-1.1690	recto en	-0.1374
-1.3904	recto interno	-0.1374
-0.6112	rectocólica sin	-0.1374
-1.2007	referencia (	-0.1374
-1.2890	referencia )	-0.1374
-1.1273	referencia .	-0.1374
-1.3229	referencia :	-0.2267
-1.1690	referencia en	-0.1279
-1.3779	referencia hepática	-0.1279
-0.6181	refiere opresión	-0.1374
-0.6181	regiones pertrocantéreas	-0.1374
-0.9165	región abdominal	-0.1374
-0.9154	región inferior	-0.1374
-0.6034	relacionado con	-0.1279
-1.2070	relación al	-0.1374
-0.7363	relación con	-0.3605
-1.2109	relación metástasis	-0.1374
-0.6176	remisión parcial	-0.1374
-0.6101	renal izquierda	-0.1279
-0.6181	reservorio venoso	-0.1374
-0.5577	resolución de	-0.1374
-0.6075	respecto a	-0.1374
-0.5739	resto de	-0.1374
-1.0745	resto del	-0.1374
-0.6165	resultan inespecíficas	-0.1374
-0.6176	resultando sospechosas	-0.1374
-0.5792	retrocrurales (	-0.1374
-0.6176	retroperitoneal interaorto	-0.1374
-0.8102	retroperitoneales .	-0.1374
-0.9175	retroperitoneales como	-0.1374
-0.8440	retrosomática (	-0.1374
-0.8817	retrosomática y	-0.1374
-0.5987	reumatica )	-0.1374
-0.5714	reumática en	-0.1374
-0.8102	revisión .	-0.1374
-0.9165	revisión realizamos	-0.1374
-0.6181	rituximab ante	-0.1374
-0.6101	riñón izquierdo	-0.1374
-2.0395	se administra	-0.1279
-1.2225	se compara	-0.4745
-2.0395	se confirma	-0.1374
-2.0395	se distribuyen	-0.1374
-2.0395	se expresan	-0.8724
-2.0395	se extiende	-0.1374
-1.0135	se identifica	-0.1374
-0.8722	se identifican	-0.6161
-1.5813	se objetivan	-0.1374
-2.0395	se observa	-0.1374
-1.5813	se observan	-0.1326
-2.0395	se obtiene	-0.1374
-2.0395	se obtienen	-0.1374
-2.0395	se realiza	-0.1279
-2.0395	se recomienda	-0.1374
-2.0395	se solicita	-0.1374
-0.5633	secundario ,	-0.1374
-0.6075	secundarios a	-0.1374
-0.5714	segmentectomía en	-0.1374
-1.0617	segmento 2	-0.1374
-1.0769	segmento 5	-0.1279
-1.0784	segmento 8	-0.1374
-1.0942	seno esfenoidal	-0.1374
-1.0926	seno frontal	-0.1374
-1.0942	seno maxilar	-0.1374
-0.6107	sensibilidad del	-0.1374
-0.5605	separación .	-0.1374
-0.6003	septiembre -	-0.1374
-0.6160	ser lesiones	-0.1374
-0.6181	sesil valorado	-0.1374
-0.5577	sesiones de	-0.1374
-0.6176	sexto arco	-0.1374
-0.9049	si se	-0.1374
-0.9165	si ya	-0.1374
-0.6176	siendo esta	-0.1374
-0.5633	sigma ,	-0.1374
-0.5792	sigmoidectomía (	-0.1374
-0.8102	significación .	-0.1374
-0.9175	significación patológica	-0.1374
-0.6080	significativas por	-0.1374
-0.8102	significativo .	-0.1374
-0.9112	significativo ni	-1.0766
-0.8298	significativos en	-0.1374
-0.8987	significativos por	-0.1374
-0.6181	siguientes parámetros	-0.1279
-0.5714	simétrica en	-0.1374
-1.8822	sin actividad	-0.1374
-1.9705	sin alteraciones	-0.1374
-1.4760	sin aumento	-0.1279
-1.9420	sin cambios	-0.1374
-1.9705	sin clara	-0.1374
-1.5085	sin contraste	-0.1374
-1.9705	sin detectar	-0.6506
-1.9705	sin evidencia	-0.1374
-0.8014	sin focos	-0.7755
-1.9154	sin hallazgos	-0.1374
-1.9608	sin identifican	-0.1374
-1.5052	sin incremento	-0.1279
-1.4606	sin metabolismo	-0.1279
-1.9513	sin otros	-0.1374
-1.9705	sin poder	-0.1374
-0.6181	sistémica acá	-0.1374
-0.6181	sjogren secundario	-0.1374
-0.6170	sobre todo	-0.1374
-0.9070	solicita estudio	-0.1374
-0.9154	solicita valorar	-0.1374
-0.6122	solicitan estudio	-0.1374
-0.4540	son sospechosas	-0.1279
-0.5577	sospecha de	-0.1374
-0.4179	sospechosa de	-0.3496
-0.4179	sospechosas de	-0.3496
-1.4600	su comportamiento	-0.1374
-1.4600	su extensión	-0.1374
-1.4563	su infiltración	-0.1374
-1.4563	su inserción	-0.1374
-1.4418	su mayor	-0.1374
-1.4042	su metabolismo	-0.1374
-1.4526	su pequeño	-0.3496
-0.5792	subcarinal (	-0.1374
-0.8807	subcentimétricas )	-0.1374
-0.8298	subcentimétricas en	-0.1374
-0.5714	subcentimétrico en	-0.1374
-0.6176	subcortical frontal	-0.1374
-0.6795	subcutáneo de	-0.1374
-1.2167	subcutáneo localizado	-0.1374
-1.2070	subcutáneo múltiples	-0.1374
-0.5992	subcutáneos y	-0.1374
-1.0278	subpleural de	-0.1279
-0.6965	subpleural en	-0.1374
-1.2187	subpleural subcentimétrico	-0.1374
-0.5577	sugestiva de	-0.1374
-0.5577	sugestivas de	-0.1279
-0.4179	sugestivo de	-0.1311
-0.1742	sugestivos de	-0.3312
-0.6176	sugiera recidiva	-0.1374
-0.6170	sugieren malignidad	-0.1374
-1.0476	supera -	-0.1374
-0.6288	supera e	-0.1279
-0.5577	superior de	-0.8267
-0.8102	superiores .	-0.1279
-0.9049	superiores sin	-0.1374
-0.8152	supraaórticos ,	-0.1374
-0.9175	supraaórticos sugestivo	-0.1374
-0.7665	supraclavicular ,	-0.1374
-1.2836	supraclavicular derecha	-0.1374
-1.2790	supraclavicular izquierda	-0.1374
-1.2790	supraclavicular izquierdo	-0.1374
-0.4214	supraclaviculares ,	-0.6506
-0.9049	suprarrenal derecha	-0.1374
-0.9028	suprarrenal izquierda	-0.1311
-0.5326	suprarrenales ,	-0.6506
-1.3944	suprarrenales aumentadas	-0.1374
-0.9020	suprarrenales y	-0.3496
-0.9175	sutura quirúrgica	-0.1279
-0.9186	sutura rectocólica	-0.1374
-0.5605	síndrome .	-0.1374
-0.5739	sólida de	-0.1279
-0.9781	sólida en	-0.1374
-0.5992	sólido y	-0.1374
-1.3884	tamaño (	-0.1374
-1.2968	tamaño ,	-0.1374
-1.2821	tamaño .	-0.1279
-1.0483	tamaño de	-0.1374
-1.7061	tamaño e	-0.1374
-1.6812	tamaño ni	-0.1374
-1.7192	tamaño normometabólica	-0.1374
-1.7258	tamaño o	-0.1374
-1.7258	tamaño pero	-0.1374
-1.6245	tamaño que	-0.1374
-1.7192	tamaño significativo	-1.0766
-1.5336	tamaño y	-0.1279
-1.0647	también por	-0.1374
-1.0894	también presenta	-0.1374
-1.0926	también son	-0.1374
-0.6176	tanto retroperitoneales	-0.1374
-0.8440	tap (	-0.1374
-0.9154	tap previo	-0.1374
-0.8152	tardía ,	-0.1374
-0.8102	tardía .	-0.1374
-0.5577	tardías de	-0.1374
-0.8152	tardío ,	-0.1374
-0.8977	tardío a	-0.1279
-1.0942	tejido celular	-0.1374
-1.0942	tejido mamario	-0.1374
-1.0894	tejido subcutáneo	-0.1374
-0.6112	temporal derecha	-0.1374
-0.5714	tener en	-0.7632
-0.5714	teniendo en	-0.1279
-1.0926	tercio anterior	-0.1374
-1.0942	tercio proximal	-0.1374
-1.0942	tercio superior	-0.8267
-0.5577	territorio de	-0.3830
-0.6101	tibia izquierda	-0.1374
-0.6122	tiempo 4	-0.1374
-0.5714	tiene en	-0.1374
-0.5605	tiroideo .	-0.1374
-0.5605	tiroideos .	-0.1374
-0.9337	tiroides de	-0.1374
-1.0926	tiroides normometabólica	-0.8724
-1.0738	tiroides se	-0.1374
-0.6298	todas ellas	-0.1311
-1.0886	todas las	-0.1374
-0.6303	todo ello	-0.2861
-0.9781	todo en	-0.1374
-1.0926	torácica anterior	-0.1374
-1.0942	torácica descendente	-0.1374
-1.0399	torácica y	-0.1374
-0.4528	traducción metabólica	-0.1374
-0.6096	tras la	-0.1374
-0.8896	tratada con	-0.1374
-0.8817	tratada y	-0.1374
-0.6165	tratamiento con	-0.1374
-1.0943	tratamiento quimioterápico	-0.1374
-0.5577	tratarse de	-0.1374
-0.5605	traumática .	-0.1374
-0.6181	tres sesiones	-0.1374
-0.5605	trocantérica .	-0.1374
-0.6154	trocánter mayor	-0.1374
-0.5577	tronco de	-0.1374
-0.4543	troncos supraaórticos	-0.1374
-0.5987	trxap )	-0.1374
-0.6181	tumoración avanzada	-0.1374
-0.3693	tumoral .	-0.9138
-1.2132	tumoral vs	-0.1311
-0.9404	tumorales .	-0.1374
-0.9671	tumorales en	-0.1374
-1.0878	tumorales vs	-0.1374
-0.5577	técnica de	-0.1374
-1.0573	tórax :	-0.7175
-1.0942	tórax hipometabolismo	-0.1374
-1.0677	tórax no	-0.4745
-0.5987	uh )	-0.1374
-1.1997	un SULmax	-0.1374
-1.2143	un conglomerado	-0.1374
-1.1957	un estudio	-0.1374
-1.2080	un nódulo	-0.1374
-1.4866	una adenopatía	-0.1374
-1.4267	una con	-0.1374
-1.5181	una disminución	-0.1374
-1.5145	una dosis	-0.8724
-0.6477	una en	-0.1311
-1.5038	una iliaca	-0.1374
-0.6117	urgencias el	-0.1374
-0.5577	uterino de	-0.1374
-0.8102	vaginal .	-0.1374
-0.9008	vaginal que	-0.1279
-0.9175	valoración cerebral	-0.7632
-0.9133	valoración metabólica	-0.1374
-0.5714	valorado en	-0.1374
-1.5049	valorar RM	-0.1374
-1.4967	valorar afectación	-0.1374
-1.5175	valorar antecedentes	-0.1374
-1.5175	valorar clínicamente	-0.1374
-1.4123	valorar con	-0.1374
-1.5175	valorar ecográficamente	-0.1279
-1.2386	valorar en	-0.1374
-1.5090	valorar su	-0.1374
-0.4179	valores de	-0.7254
-0.6117	varias adenopatías	-0.1374
-0.5577	vascular de	-0.1374
-0.9404	vasculítica .	-0.1279
-0.9337	vasculítica de	-0.1374
-0.9671	vasculítica en	-0.1374
-0.5605	vasos .	-0.1279
-0.9175	vena femoral	-0.1374
-0.9186	vena yugular	-0.1374
-0.6181	venoso central	-0.1374
-0.6176	ver si	-0.1374
-1.1937	vertiente derecha	-0.1279
-0.7449	vertiente izquierda	-0.4745
-1.2148	vertiente posterior	-0.1374
-0.6165	vista metabólico	-0.1374
-0.5633	vocales ,	-0.1374
-0.9204	vs actividad	-0.1279
-1.3937	vs implante	-0.1279
-1.3937	vs infecciosa	-0.1374
-1.3788	vs nódulos	-0.1374
-1.3937	vs reactiva	-0.1374
-0.6181	vértebra D10	-0.1374
-0.6181	vértex craneal	-0.8267
-1.6944	x 0	-0.1279
-1.2503	x 1	-0.3496
-0.7174	x 2	-0.1374
-1.2705	x 3	-0.1374
-1.6994	x 4	-0.1374
-1.6994	x 5	-0.1374
-1.6944	x 7	-0.1374
-1.2762	x 9	-0.1279
-0.6176	xelox adyuvante	-0.1374
-0.5792	xifoides (	-0.1374
-2.0518	y 7	-0.1374
-2.2587	y D11	-0.1374
-2.2372	y L5	-0.1374
-2.0951	y adenopatía	-0.1374
-2.2167	y ambos	-0.1374
-2.2587	y antro	-0.1374
-2.2167	y aorta	-0.1374
-2.2587	y bilobulado	-0.1374
-2.2587	y cayado	-0.1374
-2.2372	y centrolobulillar	-0.1374
-1.4042	y de	-0.1374
-2.0252	y del	-0.1374
-2.2587	y desplaza	-0.1374
-2.2587	y difuso	-0.1279
-2.2587	y edema	-0.1374
-1.3837	y en	-0.1336
-2.1971	y glándula	-0.1374
-2.2587	y glúteo	-0.1374
-2.1603	y hepática	-0.1374
-2.0002	y la	-0.1374
-2.2167	y mediastínica	-0.1279
-2.0002	y metabolismo	-0.1374
-2.2587	y musculares	-0.1374
-1.4452	y otra	-0.1311
-2.2372	y otro	-0.1374
-2.2587	y palpitaciones	-0.1374
-2.2587	y paravertebral	-0.1374
-2.2587	y pelviana	-0.1374
-2.2167	y posterior	-0.1374
-1.4486	y páncreas	-0.9138
-2.2372	y pélvicas	-0.1374
-1.9882	y que	-0.1311
-2.2587	y riñón	-0.1374
-2.2587	y simétrica	-0.1374
-2.0383	y sin	-0.1374
-2.2587	y sospecha	-0.1374
-2.2587	y subcarinal	-0.1374
-2.1971	y subcutáneo	-0.1374
-2.2167	y también	-0.1374
-2.2587	y trocantérica	-0.1374
-2.1603	y una	-0.1374
-1.2979	ya conocida	-0.1374
-1.3151	ya estaba	-0.1374
-1.3151	ya presentes	-0.1374
-0.8373	ya que	-0.1279
-0.6170	yugular interna	-0.1374
-1.0943	zona glútea	-0.1374
-0.6298	zona sólida	-0.1374
-0.6181	ápofisis xifoides	-0.1374
-0.5577	áreas de	-0.1279
-0.4497	órbita izquierda	-0.1374
-0.8152	ósea ,	-0.3496
-0.8817	ósea y	-0.1374
-0.5791	óseas ,	-0.2861
-0.9533	óseas .	-0.1374
-0.5633	último ,	-0.1374
-0.5714	útero en	-0.1374

\3-grams: 
-0.4116	<s> * abdomen
-0.4116	<s> * músculo
-0.7190	<s> - abdomen
-1.6927	<s> - adenopatía
-1.7828	<s> - adenopatías
-1.8077	<s> - afectación
-1.9480	<s> - alteración
-1.9480	<s> - dilatación
-1.6380	<s> - engrosamiento
-1.7128	<s> - foco
-1.9282	<s> - hipermetabolismo
-1.8780	<s> - la
-1.7933	<s> - lesión
-0.7196	<s> - musculo
-1.9430	<s> - resto
-1.6816	<s> - sin
-0.3449	<s> PSA :
-0.4816	<s> SUL mediastínico
-0.5336	<s> a pesar
-0.3495	<s> accesibles para
-0.1670	<s> actividad hepática
-0.3359	<s> actividades de
-0.3499	<s> actual elevación
-0.0665	<s> además ,
-0.8259	<s> adenopatía interaortocava
-0.8236	<s> adenopatía supraclavicular
-0.6430	<s> adenopatías hipermetabólicas
-0.7955	<s> adenopatías patológicas
-0.5513	<s> al comparar
-0.5326	<s> ambas presentan
-0.4142	<s> aparición de
-0.3488	<s> asimetría metabólica
-0.3384	<s> asimismo ,
-0.3499	<s> atelectasia laminar
-0.6365	<s> aumento de
-0.2608	<s> aumento del
-1.1840	<s> aumento focal
-0.4814	<s> ausencia quirúrgica
-0.4799	<s> bazo de
-0.4359	<s> biopsia -
-0.5025	<s> cambios de
-0.7430	<s> cambios inflamatorios
-1.1824	<s> cambios postquirúrgicos
